\data\
ngram 1=1453
ngram 2=4803
ngram 3=6572
ngram 4=6879
ngram 5=6818

\1-grams:
-3.6786864	<unk>	0
0	<s>	-0.59156895
-2.6793175	</s>	0
-3.5456629	resumption	-0.08176118
-1.517009	of	-0.3436003
-1.5949724	the	-0.29410815
-3.3949428	session	-0.12257067
-2.5039566	i	-0.30612862
-3.5456629	declare	-0.08176118
-3.5456629	resumed	-0.08176118
-2.9781632	european	-0.096161224
-2.3793836	parliament	-0.1677843
-3.5456629	adjourned	-0.08176118
-1.9029948	on	-0.47102308
-3.5456629	friday	-0.08176118
-3.5456629	17	-0.08176118
-3.5456629	december	-0.08176118
-3.1971169	1999	-0.114096224
-1.290488	,	-0.54186714
-1.6812925	and	-0.23432292
-2.5658796	would	-0.22738595
-2.833282	like	-0.36294124
-3.0739853	once	-0.27967376
-3.369616	again	-0.08176118
-1.5510159	to	-0.27797222
-3.1971169	wish	-0.08176118
-2.3582466	you	-0.1908781
-1.9102877	a	-0.1457809
-3.5456629	happy	-0.08176118
-3.369616	new	-0.12257067
-2.9781632	year	-0.10853709
-1.6812925	in	-0.37186092
-3.3949428	hope	-0.13707294
-1.8299444	that	-0.44402978
-3.5456629	enjoyed	-0.08176118
-3.5456629	pleasant	-0.08176118
-3.5456629	festive	-0.08176118
-2.9781632	period	-0.27967376
-1.3891443	.	-2.310747
-3.3949428	although	-0.08176118
-2.2335691	as	-0.18317933
-2.4250193	will	-0.18479265
-2.1894417	have	-0.21552001
-3.5456629	seen	-0.08176118
-3.5456629	dreaded	-0.08176118
-2.4760194	&apos;	-0.5224366
-3.5456629	millennium	-0.08176118
-3.5456629	bug	-0.08176118
-3.5456629	failed	-0.08176118
-3.5456629	materialise	-0.08176118
-3.0739853	still	-0.10853709
-2.7248316	people	-0.16112882
-3.369616	number	-0.49340206
-2.833282	countries	-0.08176118
-3.5456629	suffered	-0.08176118
-3.5456629	series	-0.08176118
-3.3949428	natural	-0.08176118
-3.369616	disasters	-0.08176118
-3.5456629	truly	-0.08176118
-2.833282	were	-0.08176118
-3.3949428	dreadful	-0.08176118
-3.369616	requested	-0.08176118
-2.8997087	debate	-0.21626316
-1.9998131	this	-0.24825452
-3.3949428	subject	-0.08176118
-3.3949428	course	-0.08176118
-3.369616	next	-0.08176118
-3.3949428	few	-0.08176118
-3.5456629	days	-0.08176118
-3.1971169	during	-0.16761646
-2.9781632	part	-0.4121369
-2.5039566	@-@	-0.08176118
-3.5456629	meantime	-0.08176118
-2.5658796	should	-0.20890254
-3.5456629	observe	-0.08176118
-3.3949428	minute	-0.16761646
-3.5456629	s	-0.08176118
-3.5456629	silence	-0.08176118
-2.8997087	members	-0.18092485
-3.5456629	behalf	-0.08176118
-2.4250193	all	-0.23237456
-3.5456629	victims	-0.08176118
-3.369616	concerned	-0.24053377
-3.369616	particularly	-0.08176118
-3.0739853	those	-0.08176118
-3.5456629	terrible	-0.08176118
-3.5456629	storms	-0.08176118
-3.5456629	various	-0.08176118
-3.5456629	union	-0.08176118
-3.5456629	please	-0.08176118
-3.5456629	rise	-0.08176118
-2.833282	then	-0.20430198
-1.8958222	for	-0.32635257
-2.9781632	(	-0.10168674
-3.3949428	house	-0.08176118
-3.5456629	rose	-0.08176118
-3.5456629	observed	-0.08176118
-2.6381238	)	-0.16653505
-3.3949428	madam	-0.16761646
-2.6793175	president	-0.27529588
-3.0739853	point	-0.114096224
-3.1971169	order	-0.08176118
-2.3793836	be	-0.10375495
-3.3949428	aware	-0.08176118
-2.5658796	from	-0.3160536
-3.5456629	press	-0.08176118
-3.3949428	television	-0.08176118
-2.5039566	there	-0.27889922
-2.5658796	been	-0.09710688
-3.5456629	bomb	-0.08176118
-3.5456629	explosions	-0.08176118
-3.5456629	killings	-0.08176118
-3.3949428	sri	-0.08176118
-3.5456629	lanka	-0.08176118
-2.6381238	one	-0.14183146
-3.5456629	assassinated	-0.08176118
-2.5658796	very	-0.09102416
-3.369616	recently	-0.08176118
-2.6793175	was	-0.08176118
-2.5658796	mr	-0.26381943
-3.5456629	kumar	-0.08176118
-3.5456629	ponnambalam	-0.08176118
-3.1971169	who	-0.099427156
-2.833282	had	-0.19891739
-3.5456629	visited	-0.08176118
-2.833282	just	-0.117842264
-2.9781632	months	-0.08176118
-3.5456629	ago	-0.08176118
-2.1127164	it	-0.24397554
-3.369616	appropriate	-0.08176118
-3.5456629	write	-0.08176118
-3.369616	letter	-0.08176118
-3.5456629	lankan	-0.08176118
-3.5456629	expressing	-0.08176118
-2.9781632	&apos;s	-0.0949428
-3.3949428	regret	-0.08176118
-2.4760194	at	-0.2542228
-2.7756803	his	-0.08176118
-3.0739853	other	-0.10460939
-3.5456629	violent	-0.08176118
-3.5456629	deaths	-0.08176118
-3.5456629	urging	-0.08176118
-3.3949428	her	-0.08176118
-2.5658796	do	-0.278409
-3.369616	everything	-0.08176118
-3.3949428	she	-0.08176118
-3.3949428	possibly	-0.08176118
-2.8997087	can	-0.15731278
-3.5456629	seek	-0.08176118
-3.5456629	peaceful	-0.08176118
-3.5456629	reconciliation	-0.08176118
-3.369616	difficult	-0.08176118
-3.369616	situation	-0.08176118
-2.6005013	?	-1.1302241
-3.3949428	yes	-0.16761646
-3.5456629	evans	-0.08176118
-3.5456629	feel	-0.08176118
-2.5658796	an	-0.08176118
-3.3949428	initiative	-0.08176118
-3.3949428	type	-0.08176118
-3.369616	suggested	-0.08176118
-3.5456629	entirely	-0.08176118
-2.7756803	if	-0.15248552
-3.5456629	agrees	-0.08176118
-3.369616	shall	-0.10168674
-2.2036583	has	-0.15950207
-2.7248316	your	-0.114096224
-3.5456629	advice	-0.08176118
-3.1971169	about	-0.12257067
-3.369616	rule	-0.08176118
-3.5456629	143	-0.08176118
-3.3949428	concerning	-0.08176118
-3.5456629	inadmissibility	-0.08176118
-2.5338154	my	-0.18402459
-3.1971169	question	-0.08176118
-3.5456629	relates	-0.08176118
-3.3949428	something	-0.08176118
-3.1971169	come	-0.08176118
-3.1971169	up	-0.08176118
-3.369616	thursday	-0.114096224
-2.1756754	which	-0.16819152
-3.369616	raise	-0.08176118
-3.5456629	cunha	-0.08176118
-2.9781632	report	-0.117842264
-3.5456629	multiannual	-0.08176118
-3.5456629	guidance	-0.08176118
-3.369616	programmes	-0.08176118
-3.369616	comes	-0.08176118
-3.0739853	before	-0.08176118
-3.3949428	contains	-0.16761646
-2.9781632	proposal	-0.09227426
-3.5456629	paragraph	-0.08176118
-3.5456629	6	-0.08176118
-3.369616	form	-0.13707294
-3.5456629	quota	-0.08176118
-3.3949428	penalties	-0.08176118
-3.5456629	introduced	-0.08176118
-3.3949428	fail	-0.16761646
-3.3949428	meet	-0.08176118
-2.833282	their	-0.08176118
-3.5456629	fleet	-0.08176118
-3.3949428	reduction	-0.08176118
-3.5456629	targets	-0.08176118
-3.5456629	annually	-0.08176118
-3.5456629	says	-0.08176118
-3.0739853	done	-0.21397948
-3.5456629	despite	-0.08176118
-3.369616	principle	-0.12257067
-3.5456629	relative	-0.08176118
-3.5456629	stability	-0.08176118
-3.3949428	believe	-0.16761646
-2.0681922	is	-0.22422639
-3.5456629	fundamental	-0.08176118
-3.3949428	legal	-0.08176118
-3.369616	common	-0.34881806
-3.5456629	fisheries	-0.08176118
-3.3949428	policy	-0.13707294
-3.5456629	subvert	-0.08176118
-3.5456629	legally	-0.08176118
-3.5456629	inadmissible	-0.08176118
-3.3949428	want	-0.16761646
-3.0739853	know	-0.12872674
-2.8997087	whether	-0.22112496
-3.5456629	objection	-0.08176118
-3.3949428	kind	-0.08176118
-2.9781632	what	-0.12872674
-3.3949428	merely	-0.08176118
-2.3582466	not	-0.16033521
-2.9781632	legislative	-0.35984975
-3.5456629	competently	-0.08176118
-3.5456629	precisely	-0.08176118
-2.6381238	time	-0.1325589
-2.7756803	when	-0.12647809
-2.9781632	may	-0.08176118
-3.5456629	i.e.	-0.08176118
-3.3949428	prior	-0.08176118
-3.5456629	start	-0.08176118
-3.3949428	presentation	-0.16761646
-3.5456629	coinciding	-0.08176118
-2.149387	with	-0.34763408
-2.8997087	first	-0.12872674
-3.369616	date	-0.08176118
-3.3949428	set	-0.08176118
-3.5456629	unfortunately	-0.08176118
-3.3949428	texas	-0.08176118
-3.5456629	america	-0.08176118
-3.3949428	execution	-0.08176118
-3.5456629	young	-0.08176118
-3.5456629	34	-0.08176118
-3.5456629	old	-0.08176118
-3.5456629	man	-0.08176118
-3.5456629	sentenced	-0.08176118
-3.5456629	death	-0.08176118
-2.318829	we	-0.282632
-3.3949428	call	-0.08176118
-3.369616	him	-0.08176118
-3.5456629	hicks	-0.08176118
-2.8997087	request	-0.099427156
-3.5456629	french	-0.08176118
-3.0739853	member	-0.2806685
-3.5456629	zimeray	-0.08176118
-3.5456629	petition	-0.08176118
-3.369616	already	-0.12257067
-3.3949428	presented	-0.08176118
-2.9781632	many	-0.08176118
-3.5456629	signed	-0.08176118
-3.5456629	including	-0.08176118
-3.5456629	myself	-0.08176118
-3.3949428	however	-0.16761646
-3.0739853	ask	-0.22112496
-3.3949428	accordance	-0.16761646
-3.5456629	line	-0.08176118
-2.7756803	now	-0.08176118
-3.5456629	constantly	-0.08176118
-3.5456629	followed	-0.08176118
-2.318829	by	-0.4210765
-3.5456629	whole	-0.08176118
-3.3949428	community	-0.08176118
-3.369616	make	-0.08176118
-3.5456629	representations	-0.08176118
-3.5456629	using	-0.08176118
-3.5456629	weight	-0.08176118
-3.5456629	prestigious	-0.08176118
-3.5456629	office	-0.08176118
-3.5456629	institution	-0.08176118
-3.3949428	represent	-0.08176118
-3.5456629	governor	-0.08176118
-3.5456629	bush	-0.08176118
-3.5456629	power	-0.08176118
-3.5456629	stay	-0.08176118
-3.5456629	reprieve	-0.08176118
-3.5456629	condemned	-0.08176118
-3.5456629	person	-0.08176118
-3.5456629	principles	-0.08176118
-3.1971169	always	-0.08176118
-3.5456629	upheld	-0.08176118
-3.3949428	thank	-0.08176118
-3.5456629	segni	-0.08176118
-2.6381238	so	-0.110164754
-3.5456629	gladly	-0.08176118
-3.369616	indeed	-0.13707294
-3.1971169	quite	-0.08176118
-3.5456629	keeping	-0.08176118
-3.5456629	positions	-0.08176118
-2.833282	adopted	-0.10168674
-3.5456629	draw	-0.08176118
-3.369616	attention	-0.13707294
-2.9781632	case	-0.10168674
-3.5456629	consistently	-0.08176118
-3.3949428	shown	-0.08176118
-3.5456629	interest	-0.08176118
-3.3949428	alexander	-0.16761646
-3.5456629	nikitin	-0.08176118
-2.7248316	us	-0.12647809
-2.833282	here	-0.099427156
-2.5338154	are	-0.1378687
-3.369616	pleased	-0.13707294
-3.5456629	courts	-0.08176118
-3.5456629	acquitted	-0.08176118
-2.8997087	made	-0.08176118
-2.9781632	clear	-0.10853709
-3.3949428	russia	-0.08176118
-3.0739853	too	-0.08176118
-3.5456629	access	-0.08176118
-3.5456629	environmental	-0.08176118
-3.3949428	information	-0.16761646
-3.5456629	constitutional	-0.08176118
-3.1971169	right	-0.08176118
-3.0739853	he	-0.2806685
-3.5456629	go	-0.08176118
-2.833282	more	-0.096161224
-2.5338154	because	-0.15731278
-3.3949428	public	-0.08176118
-3.5456629	prosecutor	-0.08176118
-3.5456629	appealing	-0.08176118
-3.5456629	stated	-0.08176118
-3.1971169	much	-0.12257067
-3.3949428	resolutions	-0.08176118
-3.5456629	specifically	-0.08176118
-3.1971169	last	-0.10460939
-3.5456629	plenary	-0.08176118
-3.5456629	solely	-0.08176118
-3.5456629	wrong	-0.08176118
-3.5456629	accused	-0.08176118
-3.5456629	criminal	-0.08176118
-3.3949428	activity	-0.08176118
-3.5456629	treason	-0.08176118
-2.6381238	our	-0.09102416
-3.5456629	involvement	-0.08176118
-3.5456629	beneficiaries	-0.08176118
-3.3949428	findings	-0.08176118
-2.9781632	these	-0.08176118
-3.3949428	basis	-0.08176118
-3.5456629	protect	-0.08176118
-3.5456629	barents	-0.08176118
-3.369616	sea	-0.08176118
-3.0739853	why	-0.099427156
-3.5456629	examine	-0.08176118
-3.369616	draft	-0.08176118
-3.3949428	setting	-0.08176118
-2.8997087	out	-0.12257067
-3.5456629	most	-0.08176118
-3.0739853	important	-0.08176118
-3.3949428	facts	-0.08176118
-3.369616	position	-0.10168674
-3.5456629	expressed	-0.08176118
-3.5456629	far	-0.08176118
-3.369616	mrs	-0.10853709
-3.5456629	schroedter	-0.08176118
-3.369616	look	-0.13707294
-2.9781632	into	-0.12872674
-3.3949428	received	-0.08176118
-3.3949428	firstly	-0.08176118
-3.5456629	compliment	-0.08176118
-3.3949428	fact	-0.08176118
-3.3949428	kept	-0.08176118
-3.5456629	word	-0.08176118
-3.3949428	channels	-0.08176118
-3.5456629	offices	-0.08176118
-3.3949428	increased	-0.08176118
-3.5456629	considerably	-0.08176118
-2.833282	but	-0.11650066
-3.5456629	personal	-0.08176118
-3.5456629	met	-0.08176118
-3.369616	two	-0.08176118
-3.5456629	finnish	-0.08176118
-3.5456629	portuguese	-0.08176118
-2.5658796	no	-0.107085906
-3.369616	dutch	-0.13707294
-3.5456629	channel	-0.08176118
-3.5456629	able	-0.08176118
-3.3949428	follow	-0.13707294
-3.5456629	news	-0.08176118
-3.5456629	sent	-0.08176118
-3.3949428	place	-0.08176118
-3.5456629	exile	-0.08176118
-3.5456629	every	-0.08176118
-3.3949428	month	-0.08176118
-2.6793175	therefore	-0.09303504
-3.5456629	ensure	-0.08176118
-3.5456629	get	-0.08176118
-3.369616	well	-0.08176118
-3.5456629	plooij	-0.08176118
-3.5456629	van	-0.08176118
-3.5456629	gorsel	-0.08176118
-3.369616	tell	-0.13707294
-3.0739853	matter	-0.09762787
-3.0739853	agenda	-0.18944477
-3.3949428	quaestors	-0.08176118
-3.369616	meeting	-0.08176118
-3.369616	wednesday	-0.08176118
-3.5456629	examined	-0.08176118
-3.3949428	positive	-0.08176118
-3.369616	light	-0.13707294
-3.369616	me	-0.08176118
-3.0739853	does	-0.7152508
-3.5456629	adhere	-0.08176118
-3.3949428	health	-0.16761646
-2.3793836	safety	-0.28992194
-3.1971169	legislation	-0.08176118
-3.3949428	actually	-0.08176118
-3.5456629	passes	-0.08176118
-3.3949428	air	-0.08176118
-3.5456629	quality	-0.08176118
-3.5456629	test	-0.08176118
-3.369616	particular	-0.08176118
-3.5456629	building	-0.08176118
-2.9781632	since	-0.099427156
-3.5456629	elected	-0.08176118
-3.369616	committee	-0.08176118
-3.369616	1998	-0.08176118
-3.3949428	fire	-0.08176118
-3.5456629	drill	-0.08176118
-3.0739853	either	-0.08176118
-3.5456629	brussels	-0.08176118
-3.5456629	buildings	-0.08176118
-2.5039566	or	-0.09160972
-3.5456629	strasbourg	-0.08176118
-3.5456629	instructions	-0.08176118
-3.5456629	staircases	-0.08176118
-3.369616	improved	-0.08176118
-3.3949428	accident	-0.08176118
-3.5456629	smoking	-0.08176118
-3.1971169	areas	-0.12257067
-3.5456629	enforced	-0.08176118
-3.369616	seems	-0.13707294
-3.5456629	absolutely	-0.08176118
-3.5456629	disgraceful	-0.08176118
-3.5456629	pass	-0.08176118
-3.1971169	ourselves	-0.08176118
-3.5456629	lynne	-0.08176118
-3.5456629	check	-0.08176118
-2.5039566	also	-0.09847923
-3.3949428	refer	-0.08176118
-3.5456629	college	-0.08176118
-3.3949428	am	-0.08176118
-3.369616	certain	-0.08176118
-2.7756803	they	-0.17678638
-3.3949428	keen	-0.16761646
-3.5456629	comply	-0.08176118
-3.3949428	regulations	-0.08176118
-2.7248316	vote	-0.24905726
-3.5456629	díez	-0.08176118
-3.5456629	gonzález	-0.08176118
-3.369616	tabled	-0.08176118
-3.369616	questions	-0.08176118
-3.5456629	opinions	-0.08176118
-3.3949428	vice	-0.16761646
-3.369616	de	-0.13707294
-3.5456629	palacio	-0.08176118
-3.5456629	appeared	-0.08176118
-3.5456629	spanish	-0.08176118
-3.3949428	newspaper	-0.08176118
-3.5456629	competent	-0.08176118
-3.5456629	services	-0.08176118
-3.1971169	included	-0.08176118
-2.8997087	them	-0.10460939
-3.5456629	grounds	-0.08176118
-3.3949428	answered	-0.08176118
-3.3949428	previous	-0.08176118
-3.5456629	reconsider	-0.08176118
-3.5456629	previously	-0.08176118
-3.3949428	referred	-0.16761646
-3.5456629	intervention	-0.08176118
-3.0739853	another	-0.08176118
-3.3949428	occasion	-0.08176118
-3.3949428	comments	-0.08176118
-3.5456629	abc	-0.08176118
-3.5456629	18	-0.08176118
-3.5456629	november	-0.08176118
-3.5456629	berenguer	-0.08176118
-3.5456629	fuster	-0.08176118
-3.5456629	admit	-0.08176118
-2.8997087	present	-0.10460939
-3.5456629	somewhat	-0.08176118
-3.5456629	confused	-0.08176118
-3.3949428	properly	-0.08176118
-3.3949428	message	-0.08176118
-3.5456629	going	-0.08176118
-3.369616	week	-0.08176118
-3.5456629	discontent	-0.08176118
-3.1971169	over	-0.08176118
-2.8997087	today	-0.21397948
-3.369616	decision	-0.10168674
-3.5456629	refusing	-0.08176118
-3.5456629	renew	-0.08176118
-3.3949428	arms	-0.08176118
-3.3949428	embargo	-0.08176118
-3.3949428	indonesia	-0.08176118
-3.369616	considering	-0.13707294
-3.5456629	vast	-0.08176118
-3.5456629	majority	-0.08176118
-3.5456629	endorsed	-0.08176118
-3.5456629	past	-0.08176118
-3.3949428	extremely	-0.08176118
-2.9781632	dangerous	-0.24053377
-3.3949428	send	-0.08176118
-3.5456629	irresponsible	-0.08176118
-3.1971169	eu	-0.08176118
-3.3949428	states	-0.08176118
-3.5456629	refuse	-0.08176118
-3.3949428	said	-0.08176118
-3.5456629	volatile	-0.08176118
-3.5456629	risk	-0.08176118
-3.5456629	military	-0.08176118
-3.5456629	coup	-0.08176118
-3.5456629	future	-0.08176118
-3.5456629	happening	-0.08176118
-3.5456629	producers	-0.08176118
-3.5456629	profit	-0.08176118
-3.3949428	expense	-0.08176118
-3.5456629	innocent	-0.08176118
-3.0739853	any	-0.08176118
-3.5456629	event	-0.08176118
-3.5456629	presently	-0.08176118
-3.5456629	among	-0.08176118
-3.3949428	requests	-0.08176118
-3.5456629	topical	-0.08176118
-3.5456629	urgent	-0.08176118
-3.3949428	item	-0.08176118
-3.5456629	verification	-0.08176118
-3.3949428	final	-0.08176118
-3.5456629	version	-0.08176118
-3.5456629	drawn	-0.08176118
-3.369616	conference	-0.08176118
-3.5456629	presidents	-0.08176118
-2.6381238	its	-0.09160972
-3.5456629	13	-0.08176118
-3.369616	january	-0.08176118
-3.5456629	pursuant	-0.08176118
-3.5456629	110	-0.08176118
-2.9781632	rules	-0.10460939
-3.369616	procedure	-0.13707294
-2.9781632	amendments	-0.08176118
-3.1971169	proposed	-0.08176118
-3.3949428	relating	-0.16761646
-3.3949428	monday	-0.08176118
-3.5456629	tuesday	-0.08176118
-3.1971169	:	-0.08176118
-2.6381238	group	-0.1025742
-3.5456629	party	-0.08176118
-3.3949428	socialists	-0.08176118
-3.0739853	commission	-0.10087198
-3.369616	statement	-0.08176118
-3.369616	strategic	-0.13707294
-3.3949428	objectives	-0.08176118
-3.3949428	five	-0.08176118
-3.369616	years	-0.114096224
-3.3949428	administrative	-0.16761646
-3.3949428	reform	-0.08176118
-3.5456629	barón	-0.08176118
-3.5456629	crespo	-0.08176118
-3.5456629	speak	-0.08176118
-3.369616	propose	-0.08176118
-3.3949428	wishes	-0.08176118
-3.5456629	usual	-0.08176118
-3.5456629	hearing	-0.08176118
-3.5456629	speaker	-0.08176118
-3.5456629	favour	-0.08176118
-2.9781632	against	-0.10853709
-3.369616	prodi	-0.08176118
-3.369616	political	-0.08176118
-2.7248316	programme	-0.17853603
-3.369616	legislature	-0.12257067
-3.5456629	initially	-0.08176118
-3.3949428	unanimously	-0.08176118
-3.5456629	approved	-0.08176118
-3.3949428	september	-0.12257067
-3.3949428	explicitly	-0.08176118
-3.1971169	accepted	-0.12257067
-3.5456629	reiterated	-0.08176118
-3.369616	commitment	-0.08176118
-3.5456629	inaugural	-0.08176118
-3.3949428	speech	-0.08176118
-3.5456629	body	-0.08176118
-3.5456629	monopoly	-0.08176118
-3.3949428	treaties	-0.08176118
-3.5456629	basically	-0.08176118
-3.5456629	dictates	-0.08176118
-3.1971169	voted	-0.08176118
-3.3949428	express	-0.16761646
-3.369616	confidence	-0.49340206
-3.1971169	did	-0.34881806
-3.3949428	july	-0.08176118
-3.5456629	approve	-0.08176118
-3.369616	enough	-0.08176118
-3.3949428	prepare	-0.08176118
-3.3949428	become	-0.08176118
-3.5456629	familiar	-0.08176118
-3.3949428	explain	-0.08176118
-3.369616	citizens	-0.12257067
-3.369616	end	-0.08176118
-3.3949428	remind	-0.08176118
-3.5456629	resolution	-0.08176118
-3.5456629	15	-0.08176118
-3.5456629	recommended	-0.08176118
-3.5456629	soon	-0.08176118
-3.3949428	possible	-0.08176118
-3.3949428	events	-0.08176118
-2.2493346	-	-0.17410462
-3.5456629	originated	-0.08176118
-3.5456629	outside	-0.08176118
-2.8997087	being	-0.08176118
-3.5456629	used	-0.08176118
-3.3949428	simply	-0.08176118
-3.5456629	corroborate	-0.08176118
-3.5456629	ratify	-0.08176118
-3.369616	decisions	-0.08176118
-2.9781632	taken	-0.12257067
-3.5456629	elsewhere	-0.08176118
-3.5456629	dilemma	-0.08176118
-3.0739853	ready	-0.44572806
-3.5456629	clarify	-0.08176118
-3.5456629	according	-0.08176118
-3.3949428	given	-0.08176118
-3.3949428	represented	-0.08176118
-3.369616	voting	-0.08176118
-3.5456629	help	-0.08176118
-3.3949428	could	-0.08176118
-3.1971169	let	-0.12257067
-3.1971169	how	-0.08176118
-3.0739853	agreed	-0.08176118
-3.5456629	alternatively	-0.08176118
-3.369616	some	-0.12257067
-3.5456629	appear	-0.08176118
-3.5456629	suggesting	-0.08176118
-3.1971169	opinion	-0.12257067
-3.369616	second	-0.08176118
-3.5456629	hypothesis	-0.08176118
-3.5456629	imply	-0.08176118
-3.5456629	failure	-0.08176118
-3.3949428	duty	-0.08176118
-3.3949428	introducing	-0.08176118
-3.3949428	original	-0.08176118
-3.5456629	thesis	-0.08176118
-3.3949428	unknown	-0.08176118
-3.5456629	method	-0.08176118
-3.5456629	consists	-0.08176118
-3.3949428	making	-0.08176118
-2.9781632	groups	-0.24053377
-3.5456629	writing	-0.08176118
-3.369616	earlier	-0.08176118
-3.0739853	day	-0.08176118
-3.369616	bearing	-0.13707294
-3.5456629	mind	-0.08176118
-3.3949428	discussed	-0.08176118
-3.5456629	february	-0.08176118
-3.5456629	forego	-0.08176118
-2.9781632	hear	-0.10853709
-3.5456629	internet	-0.08176118
-3.5456629	longer	-0.08176118
-3.5456629	worry	-0.08176118
-3.5456629	believes	-0.08176118
-3.5456629	meant	-0.08176118
-3.5456629	listen	-0.08176118
-3.3949428	reflect	-0.08176118
-3.5456629	justification	-0.08176118
-3.5456629	whatsoever	-0.08176118
-3.3949428	delay	-0.08176118
-3.5456629	re	-0.08176118
-3.5456629	establish	-0.08176118
-3.1971169	agreement	-0.08176118
-3.3949428	between	-0.08176118
-3.1971169	proceed	-0.12257067
-3.369616	manner	-0.08176118
-3.5456629	fulfils	-0.08176118
-3.3949428	fellow	-0.08176118
-3.369616	mentioned	-0.08176118
-3.5456629	otherwise	-0.08176118
-3.3949428	find	-0.08176118
-3.5456629	paradoxical	-0.08176118
-3.5456629	pretext	-0.08176118
-3.3949428	text	-0.08176118
-3.3949428	hand	-0.16761646
-3.5456629	denied	-0.08176118
-3.5456629	knowledge	-0.08176118
-3.5456629	texts	-0.08176118
-3.5456629	based	-0.08176118
-3.369616	issue	-0.08176118
-3.5456629	applause	-0.08176118
-3.5456629	pse	-0.08176118
-3.3949428	really	-0.08176118
-3.5456629	astonished	-0.08176118
-3.5456629	behaviour	-0.08176118
-3.3949428	asking	-0.08176118
-3.369616	put	-0.08176118
-3.3949428	unable	-0.16761646
-3.5456629	attend	-0.08176118
-3.5456629	criticising	-0.08176118
-2.8997087	;	-0.08176118
-3.5456629	happens	-0.08176118
-3.5456629	someone	-0.08176118
-3.5456629	hänsch	-0.08176118
-3.5456629	depth	-0.08176118
-3.3949428	discussion	-0.08176118
-3.5456629	alone	-0.08176118
-3.5456629	advocating	-0.08176118
-3.3949428	saying	-0.08176118
-3.5456629	each	-0.08176118
-3.5456629	chairman	-0.08176118
-3.5456629	same	-0.08176118
-3.1971169	votes	-0.08176118
-3.3949428	recall	-0.16761646
-3.5456629	outcome	-0.08176118
-3.5456629	422	-0.08176118
-3.5456629	180	-0.08176118
-3.3949428	abstentions	-0.08176118
-3.5456629	means	-0.08176118
-3.5456629	exception	-0.08176118
-3.5456629	non	-0.08176118
-3.5456629	attached	-0.08176118
-3.1971169	only	-0.08176118
-3.3949428	thought	-0.08176118
-3.369616	others	-0.08176118
-3.3949428	different	-0.08176118
-3.5456629	comment	-0.08176118
-3.369616	itself	-0.08176118
-3.5456629	romano	-0.08176118
-3.1971169	after	-0.08176118
-3.5456629	everyone	-0.08176118
-3.5456629	knows	-0.08176118
-3.5456629	supported	-0.08176118
-3.3949428	plan	-0.08176118
-3.5456629	needs	-0.08176118
-3.3949428	debated	-0.08176118
-3.369616	within	-0.08176118
-3.3949428	proper	-0.08176118
-3.5456629	procedural	-0.08176118
-3.5456629	framework	-0.08176118
-3.369616	oral	-0.13707294
-3.3949428	document	-0.08176118
-3.5456629	describes	-0.08176118
-3.1971169	such	-0.08176118
-3.5456629	!	-0.08176118
-3.369616	2000	-0.08176118
-3.5456629	introduce	-0.08176118
-3.5456629	early	-0.08176118
-3.5456629	quarrel	-0.08176118
-3.369616	need	-0.49340206
-3.5456629	tread	-0.08176118
-3.5456629	path	-0.08176118
-3.5456629	supervisory	-0.08176118
-3.3949428	role	-0.08176118
-3.369616	regard	-0.08176118
-3.3949428	agree	-0.08176118
-3.5456629	reasonable	-0.08176118
-3.5456629	amount	-0.08176118
-3.5456629	preparation	-0.08176118
-2.9781632	cannot	-0.08176118
-3.3949428	idea	-0.08176118
-3.3949428	content	-0.08176118
-3.5456629	recommend	-0.08176118
-3.5456629	impression	-0.08176118
-3.5456629	open	-0.08176118
-3.1971169	hold	-0.34881806
-3.3949428	long	-0.08176118
-3.3949428	term	-0.08176118
-3.5456629	2005	-0.08176118
-3.5456629	subjects	-0.08176118
-3.5456629	connected	-0.08176118
-3.5456629	suggests	-0.08176118
-3.3949428	both	-0.08176118
-3.3949428	together	-0.08176118
-3.5456629	firmly	-0.08176118
-3.5456629	rejects	-0.08176118
-3.5456629	socialist	-0.08176118
-3.5456629	ppe	-0.08176118
-3.5456629	above	-0.08176118
-3.5456629	absolute	-0.08176118
-3.369616	respect	-0.08176118
-3.5456629	amongst	-0.08176118
-3.5456629	establishing	-0.08176118
-3.5456629	whatever	-0.08176118
-3.5456629	decide	-0.08176118
-3.5456629	reminded	-0.08176118
-3.5456629	addition	-0.08176118
-3.3949428	annual	-0.08176118
-3.5456629	broad	-0.08176118
-3.1971169	action	-0.08176118
-3.3949428	say	-0.12257067
-3.3949428	reached	-0.08176118
-3.5456629	distinguished	-0.08176118
-3.3949428	prepared	-0.08176118
-3.5456629	whenever	-0.08176118
-3.5456629	convenient	-0.08176118
-3.3949428	originally	-0.08176118
-3.5456629	parliamentary	-0.08176118
-3.3949428	repeat	-0.08176118
-3.3949428	decides	-0.08176118
-3.5456629	fully	-0.08176118
-3.5456629	upon	-0.08176118
-3.5456629	reinstated	-0.08176118
-3.3949428	rejected	-0.08176118
-3.5456629	sitting	-0.08176118
-3.1971169	regarding	-0.34881806
-3.3949428	capital	-0.16761646
-3.369616	tax	-0.08176118
-3.5456629	requesting	-0.08176118
-3.1971169	off	-0.12257067
-3.5456629	ripple	-0.08176118
-3.5456629	laughter	-0.08176118
-3.5456629	told	-0.08176118
-3.5456629	large	-0.08176118
-3.5456629	sections	-0.08176118
-3.369616	working	-0.08176118
-3.1971169	responsible	-0.12257067
-3.3949428	correct	-0.08176118
-3.5456629	grateful	-0.08176118
-3.5456629	removed	-0.08176118
-3.5456629	addressed	-0.08176118
-3.3949428	several	-0.08176118
-3.5456629	times	-0.08176118
-3.5456629	moves	-0.08176118
-3.5456629	poettering	-0.08176118
-3.5456629	wurtz	-0.08176118
-3.5456629	speaking	-0.08176118
-3.369616	lack	-0.49340206
-3.5456629	logic	-0.08176118
-3.5456629	preaching	-0.08176118
-3.5456629	went	-0.08176118
-3.5456629	back	-0.08176118
-3.3949428	perfectly	-0.08176118
-3.5456629	doing	-0.08176118
-3.5456629	unanimous	-0.08176118
-3.5456629	eldr	-0.08176118
-3.5456629	chairmen	-0.08176118
-3.0739853	even	-0.08176118
-3.5456629	knowing	-0.08176118
-3.5456629	tobin	-0.08176118
-3.5456629	dared	-0.08176118
-3.3949428	council	-0.08176118
-3.5456629	lot	-0.08176118
-3.3949428	retained	-0.08176118
-3.5456629	bodies	-0.08176118
-3.3949428	relatively	-0.08176118
-3.3949428	modest	-0.08176118
-3.1971169	give	-0.12257067
-3.5456629	tide	-0.08176118
-3.5456629	feeling	-0.08176118
-3.5456629	generated	-0.08176118
-3.5456629	seattle	-0.08176118
-3.5456629	withdrawn	-0.08176118
-3.5456629	164	-0.08176118
-3.5456629	166	-0.08176118
-3.5456629	7	-0.08176118
-3.5456629	advertising	-0.08176118
-3.5456629	counted	-0.08176118
-3.5456629	electronically	-0.08176118
-3.369616	card	-0.13707294
-3.3949428	&quot;	-0.08176118
-3.5456629	add	-0.08176118
-3.3949428	declared	-0.08176118
-3.3949428	themselves	-0.08176118
-3.369616	result	-0.13707294
-3.5456629	....	-0.08176118
-3.5456629	presidency	-0.08176118
-3.5456629	room	-0.08176118
-3.3949428	ladies	-0.16761646
-3.5456629	gentlemen	-0.08176118
-3.369616	see	-0.08176118
-3.5456629	essential	-0.08176118
-3.5456629	bring	-0.08176118
-3.3949428	cards	-0.08176118
-3.5456629	along	-0.08176118
-3.369616	clearly	-0.08176118
-3.3949428	problem	-0.08176118
-3.5456629	forgot	-0.08176118
-3.3949428	consider	-0.08176118
-3.5456629	per	-0.08176118
-3.5456629	allowances	-0.08176118
-3.5456629	forgotten	-0.08176118
-3.5456629	noted	-0.08176118
-3.5456629	understood	-0.08176118
-3.5456629	remain	-0.08176118
-3.5456629	entitled	-0.08176118
-3.5456629	forget	-0.08176118
-3.5456629	continue	-0.08176118
-3.5456629	abide	-0.08176118
-3.5456629	ruling	-0.08176118
-3.5456629	indicated	-0.08176118
-3.5456629	advance	-0.08176118
-3.5456629	happen	-0.08176118
-3.5456629	appreciate	-0.08176118
-3.5456629	close	-0.08176118
-3.3949428	business	-0.08176118
-3.5456629	might	-0.08176118
-3.5456629	allowed	-0.08176118
-3.5456629	explanation	-0.08176118
-3.5456629	useful	-0.08176118
-3.5456629	record	-0.08176118
-3.5456629	state	-0.08176118
-3.5456629	perceive	-0.08176118
-3.5456629	own	-0.08176118
-3.5456629	analysis	-0.08176118
-3.5456629	reopen	-0.08176118
-3.5456629	asked	-0.08176118
-3.5456629	floor	-0.08176118
-3.5456629	motion	-0.08176118
-3.5456629	leave	-0.08176118
-3.5456629	terribly	-0.08176118
-3.5456629	sorry	-0.08176118
-3.5456629	cox	-0.08176118
-3.369616	think	-0.12257067
-3.3949428	entered	-0.08176118
-3.5456629	minutes	-0.08176118
-3.5456629	adopt	-0.08176118
-3.369616	tomorrow	-0.08176118
-3.5456629	explained	-0.08176118
-3.5456629	workable	-0.08176118
-3.3949428	solution	-0.08176118
-3.1971169	take	-0.08176118
-3.3949428	account	-0.08176118
-3.5456629	additional	-0.08176118
-3.3949428	explanations	-0.08176118
-3.5456629	better	-0.08176118
-3.3949428	than	-0.08176118
-3.5456629	proceeding	-0.08176118
-3.5456629	consuming	-0.08176118
-3.5456629	acceptable	-0.08176118
-3.5456629	records	-0.08176118
-3.369616	correctly	-0.08176118
-3.5456629	object	-0.08176118
-3.369616	accept	-0.12257067
-3.5456629	reservations	-0.08176118
-3.3949428	pay	-0.16761646
-3.5456629	wording	-0.08176118
-3.5456629	necessary	-0.08176118
-3.5456629	thus	-0.08176118
-3.5456629	amended	-0.08176118
-3.5456629	advisers	-0.08176118
-2.6381238	transport	-0.3015194
-3.1971169	goods	-0.08176116
-3.5456629	a5	-0.08176118
-3.5456629	0105	-0.08176118
-2.6793175	/	-0.25127548
-3.5456629	koch	-0.08176118
-3.5456629	regional	-0.08176118
-3.5456629	tourism	-0.08176118
-3.5456629	view	-0.08176118
-3.3949428	adopting	-0.08176118
-2.7756803	directive	-0.17555249
-3.1971169	harmonisation	-0.12257067
-3.0739853	examination	-0.2806685
-3.1971169	requirements	-0.12872674
-3.3949428	road	-0.08176118
-3.369616	rail	-0.12257067
-3.3949428	inland	-0.16761646
-3.369616	waterways	-0.08176118
-3.3949428	c5	-0.16761646
-3.5456629	0208	-0.08176118
-3.5456629	0106	-0.08176118
-3.5456629	cod	-0.08176118
-3.369616	commissioner	-0.12257067
-3.5456629	frank	-0.08176118
-3.5456629	welcome	-0.08176118
-3.3949428	harmonising	-0.16761646
-3.0739853	training	-0.08176118
-3.5456629	waterway	-0.08176118
-3.5456629	needed	-0.08176118
-3.5456629	formal	-0.08176118
-3.3949428	level	-0.08176118
-3.5456629	96	-0.08176118
-3.5456629	35	-0.08176118
-3.5456629	ec	-0.08176118
-3.5456629	obliges	-0.08176118
-3.5456629	appoint	-0.08176118
-3.5456629	organise	-0.08176118
-3.5456629	instruction	-0.08176118
-3.3949428	secondly	-0.16761646
-3.3949428	achieve	-0.08176118
-3.5456629	increase	-0.08176118
-3.369616	transported	-0.08176118
-3.5456629	transhipped	-0.08176118
-3.3949428	b	-0.16761646
-3.5456629	distortions	-0.08176118
-3.5456629	competition	-0.08176118
-3.5456629	resulting	-0.08176118
-3.5456629	wide	-0.08176118
-3.5456629	variations	-0.08176118
-3.369616	national	-0.08176118
-3.5456629	structures	-0.08176118
-3.5456629	costs	-0.08176118
-3.5456629	c	-0.08176118
-3.3949428	equal	-0.08176118
-3.5456629	opportunities	-0.08176118
-3.5456629	labour	-0.08176118
-3.5456629	market	-0.08176118
-3.5456629	thirdly	-0.08176118
-3.5456629	currently	-0.08176118
-3.5456629	stands	-0.08176118
-3.3949428	guarantees	-0.08176118
-3.5456629	confines	-0.08176118
-3.5456629	exclusively	-0.08176118
-2.9781632	minimum	-0.30748057
-3.369616	standards	-0.08176118
-3.5456629	high	-0.08176118
-3.3949428	degree	-0.16761646
-3.1971169	flexibility	-0.12257067
-3.5456629	regulation	-0.08176118
-3.5456629	contribute	-0.08176118
-3.5456629	individual	-0.08176118
-3.5456629	responsibility	-0.08176118
-3.5456629	subsidiarity	-0.08176118
-3.5456629	greatly	-0.08176118
-3.5456629	welcomed	-0.08176118
-3.3949428	reading	-0.08176118
-3.5456629	satisfactorily	-0.08176118
-3.3949428	transposed	-0.08176118
-3.5456629	change	-0.08176118
-3.5456629	substance	-0.08176118
-3.5456629	corresponding	-0.08176118
-3.5456629	arrangements	-0.08176118
-3.5456629	example	-0.08176118
-3.5456629	system	-0.08176118
-3.5456629	violations	-0.08176118
-3.5456629	complex	-0.08176118
-3.5456629	classification	-0.08176118
-3.5456629	structure	-0.08176118
-3.5456629	related	-0.08176118
-3.369616	amendment	-0.114096224
-3.3949428	concerns	-0.16761646
-3.5456629	timetable	-0.08176118
-3.5456629	implementing	-0.08176118
-3.5456629	urge	-0.08176118
-3.1971169	support	-0.12257067
-3.369616	specific	-0.08176118
-3.5456629	implement	-0.08176118
-3.3949428	instead	-0.08176118
-3.5456629	giving	-0.08176118
-3.5456629	three	-0.08176118
-3.5456629	entry	-0.08176118
-3.5456629	force	-0.08176118
-3.5456629	clause	-0.08176118
-3.5456629	ensures	-0.08176118
-3.5456629	implemented	-0.08176118
-3.5456629	without	-0.08176118
-3.5456629	endorse	-0.08176118
-3.0739853	must	-0.14903383
-3.3949428	ever	-0.08176118
-3.5456629	frequently	-0.08176118
-3.369616	accidents	-0.08176118
-3.5456629	causing	-0.08176118
-3.369616	major	-0.08176118
-3.5456629	damage	-0.08176118
-3.369616	roads	-0.49340206
-3.3949428	railways	-0.16761646
-3.5456629	least	-0.08176118
-3.5456629	partly	-0.08176118
-3.5456629	involved	-0.08176118
-3.5456629	seriously	-0.08176118
-3.5456629	ignorance	-0.08176118
-3.5456629	drivers	-0.08176118
-3.5456629	vehicles	-0.08176118
-3.5456629	minor	-0.08176118
-3.5456629	often	-0.08176118
-3.0739853	disaster	-0.114096224
-3.5456629	austrian	-0.08176118
-3.5456629	vivid	-0.08176118
-3.5456629	memory	-0.08176118
-3.5456629	catastrophe	-0.08176118
-3.3949428	cost	-0.08176118
-3.5456629	human	-0.08176118
-3.5456629	lives	-0.08176118
-3.5456629	tauern	-0.08176118
-3.3949428	tunnel	-0.08176118
-3.0739853	where	-0.10460939
-3.5456629	subsequent	-0.08176118
-2.6793175	work	-0.11105516
-3.5456629	rebuild	-0.08176118
-3.5456629	parts	-0.08176118
-3.5456629	destroyed	-0.08176118
-3.3949428	continued	-0.08176118
-3.5456629	huge	-0.08176118
-3.5456629	renovation	-0.08176118
-3.5456629	project	-0.08176118
-3.5456629	lasted	-0.08176118
-3.5456629	cut	-0.08176118
-3.5456629	route	-0.08176118
-3.5456629	north	-0.08176118
-3.5456629	south	-0.08176118
-3.1971169	europe	-0.08176118
-3.3949428	traffic	-0.08176118
-3.5456629	diverted	-0.08176118
-3.5456629	stretched	-0.08176118
-3.5456629	patience	-0.08176118
-3.5456629	thousands	-0.08176118
-3.5456629	limit	-0.08176118
-3.5456629	hell	-0.08176118
-3.5456629	broke	-0.08176118
-3.5456629	loose	-0.08176118
-3.5456629	municipalities	-0.08176118
-3.5456629	province	-0.08176118
-3.5456629	prevention	-0.08176118
-3.5456629	answer	-0.08176118
-3.5456629	step	-0.08176118
-3.369616	towards	-0.08176118
-3.5456629	trained	-0.08176118
-3.5456629	available	-0.08176118
-3.5456629	good	-0.08176118
-3.3949428	enacting	-0.08176118
-3.5456629	law	-0.08176118
-3.3949428	greater	-0.08176118
-3.5456629	sure	-0.08176118
-3.5456629	importantly	-0.08176118
-3.5456629	applied	-0.08176118
-3.5456629	afterwards	-0.08176118
-3.3949428	yet	-0.16761646
-3.5456629	sector	-0.08176118
-3.5456629	subsequently	-0.08176118
-3.5456629	lament	-0.08176118
-3.369616	enforcement	-0.08176118
-3.5456629	address	-0.08176118
-3.5456629	sealing	-0.08176118
-3.5456629	hole	-0.08176118
-3.5456629	net	-0.08176118
-3.5456629	shutting	-0.08176118
-3.5456629	eyes	-0.08176118
-3.5456629	context	-0.08176118
-3.5456629	table	-0.08176118
-3.5456629	continuing	-0.08176118
-3.5456629	safer	-0.08176118
-3.1971169	transit	-0.12257067
-3.3949428	tunnels	-0.08176118
-3.5456629	experience	-0.08176118
-3.5456629	scale	-0.08176118
-3.5456629	heart	-0.08176118
-3.3949428	looks	-0.08176118
-3.5456629	advisors	-0.08176118
-3.3949428	transportation	-0.16761646
-3.3949428	congratulate	-0.08176118
-3.5456629	excellent	-0.08176118
-3.5456629	sadly	-0.08176118
-3.5456629	paddington	-0.08176118
-3.5456629	crash	-0.08176118
-3.5456629	london	-0.08176118
-3.5456629	norway	-0.08176118
-3.5456629	aviation	-0.08176118
-3.5456629	crashes	-0.08176118
-3.3949428	involving	-0.08176118
-3.5456629	erika	-0.08176118
-3.5456629	brittany	-0.08176118
-3.5456629	four	-0.08176118
-3.5456629	never	-0.08176118
-3.5456629	granted	-0.08176118
-3.5456629	charged	-0.08176118
-3.5456629	protecting	-0.08176118
-3.3949428	highly	-0.08176118
-3.5456629	motivated	-0.08176118
-3.5456629	qualified	-0.08176118
-3.5456629	rapporteur	-0.08176118
-3.5456629	pointed	-0.08176118
-3.5456629	six	-0.08176118
-3.5456629	ten	-0.08176118
-3.3949428	forward	-0.08176118
-3.5456629	enactment	-0.08176118
-3.5456629	provide	-0.08176118
-3.5456629	tool	-0.08176118
-3.5456629	fight	-0.08176118
-3.5456629	safe	-0.08176118
-3.5456629	initiatives	-0.08176118
-3.3949428	improve	-0.08176118
-3.5456629	area	-0.08176118
-3.3949428	recent	-0.08176118
-3.5456629	proved	-0.08176118
-3.5456629	exceptionally	-0.08176118
-3.5456629	accurate	-0.08176118
-3.369616	technical	-0.08176118
-3.5456629	submitted	-0.08176118
-3.5456629	pity	-0.08176118
-3.5456629	sense	-0.08176118
-3.5456629	needless	-0.08176118
-3.5456629	key	-0.08176118
-3.3949428	importance	-0.08176118
-3.5456629	international	-0.08176118
-3.5456629	nature	-0.08176118
-3.3949428	types	-0.16761646
-3.5456629	harmonised	-0.08176118
-3.5456629	adr	-0.08176118
-3.5456629	under	-0.08176118
-3.5456629	way	-0.08176118
-3.5456629	reasons	-0.08176118
-3.5456629	occurred	-0.08176118
-3.5456629	belgium	-0.08176118
-3.5456629	netherlands	-0.08176118
-3.5456629	lorries	-0.08176118
-3.3949428	carrying	-0.08176118
-3.5456629	drive	-0.08176118
-3.5456629	foggy	-0.08176118
-3.3949428	conditions	-0.08176118
-3.5456629	pulled	-0.08176118
-3.3949428	ships	-0.08176118
-3.3949428	eastern	-0.08176118
-3.5456629	moor	-0.08176118
-3.5456629	adjacent	-0.08176118
-3.5456629	obvious	-0.08176118
-3.1971169	risks	-0.12257067
-3.3949428	entails	-0.08176118
-3.5456629	furthermore	-0.08176118
-3.5456629	transpired	-0.08176118
-3.5456629	research	-0.08176118
-3.5456629	ports	-0.08176118
-3.5456629	finland	-0.08176118
-3.5456629	japan	-0.08176118
-3.5456629	50	-0.08176118
-3.5456629	%	-0.08176118
-3.5456629	containers	-0.08176118
-3.5456629	partially	-0.08176118
-3.369616	cargo	-0.08176118
-3.5456629	delivered	-0.08176118
-3.5456629	shipment	-0.08176118
-3.5456629	short	-0.08176118
-3.5456629	compulsory	-0.08176118
-3.5456629	employ	-0.08176118
-3.3949428	companies	-0.08176118
-3.369616	1	-0.13707294
-3.369616	problems	-0.08176118
-3.5456629	enforcing	-0.08176118
-3.3949428	especially	-0.08176118
-3.3949428	smaller	-0.16761646
-3.5456629	afford	-0.08176118
-3.5456629	dispose	-0.08176118
-3.5456629	mix	-0.08176118
-3.5456629	causes	-0.08176118
-3.5456629	iso	-0.08176118
-3.5456629	9002	-0.08176118
-3.3949428	certificates	-0.08176118
-3.5456629	include	-0.08176118
-3.5456629	finer	-0.08176118
-3.5456629	details	-0.08176118
-3.5456629	activities	-0.08176118
-3.3949428	reports	-0.08176118
-3.5456629	company	-0.08176118
-3.5456629	analyses	-0.08176118
-3.5456629	remains	-0.08176118
-3.5456629	mention	-0.08176118
-3.5456629	agreements	-0.08176118
-3.5456629	concluded	-0.08176118
-3.5456629	enter	-0.08176118
-3.3949428	deal	-0.16761646
-3.369616	until	-0.08176118
-3.5456629	2001	-0.08176118
-3.5456629	eighteen	-0.08176118
-3.5456629	gives	-0.08176118
-3.5456629	competitive	-0.08176118
-3.5456629	edge	-0.08176118
-3.5456629	interim	-0.08176118
-3.5456629	anything	-0.08176118
-3.5456629	prioritise	-0.08176118
-3.5456629	aspects	-0.08176118
-3.5456629	incorporate	-0.08176118
-3.5456629	acquis	-0.08176118
-3.5456629	communautaire	-0.08176118
-3.5456629	acceding	-0.08176118
-3.5456629	highlighted	-0.08176118
-3.5456629	regular	-0.08176118
-3.5456629	rightly	-0.08176118
-3.3949428	increasing	-0.08176118
-3.5456629	volume	-0.08176118
-3.5456629	passing	-0.08176118
-3.5456629	through	-0.08176118
-3.5456629	kinds	-0.08176118
-3.5456629	known	-0.08176118
-3.5456629	employees	-0.08176118
-3.5456629	social	-0.08176118
-3.5456629	environment	-0.08176118
-3.369616	having	-0.13707294
-3.3949428	stringent	-0.08176118
-3.5456629	relevant	-0.08176118
-3.5456629	laid	-0.08176118
-3.3949428	down	-0.08176118
-3.5456629	95	-0.08176118
-3.3949428	seem	-0.08176118
-3.5456629	sufficiently	-0.08176118
-3.5456629	adequate	-0.08176118
-3.5456629	advise	-0.08176118
-3.5456629	organisation	-0.08176118
-3.5456629	examinations	-0.08176118
-3.5456629	preferred	-0.08176118
-3.5456629	uniform	-0.08176118
-3.5456629	modules	-0.08176118
-3.5456629	established	-0.08176118
-3.5456629	value	-0.08176118
-3.5456629	internationally	-0.08176118
-3.5456629	feasible	-0.08176118
-3.5456629	finally	-0.08176118
-3.5456629	logical	-0.08176118
-3.5456629	wholehearted	-0.08176118
-3.3949428	though	-0.08176118
-3.5456629	nonetheless	-0.08176118
-3.3949428	great	-0.08176118
-3.5456629	significance	-0.08176118
-3.5456629	convinced	-0.08176118
-3.5456629	fall	-0.08176118
-3.5456629	fertile	-0.08176118
-3.5456629	ground	-0.08176118
-3.5456629	paid	-0.08176118
-3.5456629	dealing	-0.08176118
-3.5456629	19	-0.08176118
-3.5456629	march	-0.08176118
-3.5456629	responded	-0.08176118
-3.3949428	quickly	-0.08176118
-3.5456629	lag	-0.08176118
-3.5456629	little	-0.08176118
-3.5456629	fault	-0.08176118
-3.5456629	cases	-0.08176118
-3.3949428	country	-0.08176118
-3.5456629	rather	-0.08176118
-3.5456629	sceptical	-0.08176118
-3.5456629	sweden	-0.08176118
-3.5456629	germany	-0.08176118
-3.5456629	italy	-0.08176118
-3.369616	austria	-0.08176118
-3.5456629	live	-0.08176118
-3.5456629	monitor	-0.08176118
-3.5456629	carefully	-0.08176118
-3.5456629	inadequate	-0.08176118
-3.5456629	third	-0.08176118
-3.3949428	rack	-0.08176118
-3.5456629	plays	-0.08176118
-3.5456629	worse	-0.08176118
-3.5456629	unilaterally	-0.08176118
-3.5456629	keep	-0.08176118
-3.3949428	magnificent	-0.08176118
-3.3949428	cooperation	-0.16761646
-3.5456629	improving	-0.08176118
-3.5456629	presenting	-0.08176118
-3.5456629	aptitude	-0.08176118
-3.5456629	understand	-0.08176118
-3.5456629	institutions	-0.08176118
-3.5456629	cooperate	-0.08176118
-3.5456629	current	-0.08176118
-3.5456629	includes	-0.08176118
-3.5456629	practically	-0.08176118
-3.5456629	harmonises	-0.08176118
-3.5456629	realistic	-0.08176118
-3.5456629	spent	-0.08176118
-3.5456629	debating	-0.08176118
-3.5456629	briefly	-0.08176118
-3.5456629	interventions	-0.08176118
-3.5456629	priorities	-0.08176118
-3.5456629	field	-0.08176118
-3.5456629	simpson	-0.08176118
-3.3949428	process	-0.08176118
-3.5456629	margins	-0.08176118
-3.5456629	messrs	-0.08176118
-3.5456629	swoboda	-0.08176118
-3.5456629	doubtless	-0.08176118
-3.5456629	sensitive	-0.08176118
-3.5456629	effort	-0.08176118
-3.5456629	worst	-0.08176118
-3.5456629	margarine	-0.08176118
-3.5456629	kilos	-0.08176118
-3.5456629	paint	-0.08176118
-3.5456629	led	-0.08176118
-3.5456629	genuine	-0.08176118
-3.5456629	guaranteeing	-0.08176118
-3.5456629	maximum	-0.08176118
-3.5456629	further	-0.08176118
-3.5456629	holding	-0.08176118
-3.5456629	discuss	-0.08176118
-3.5456629	terms	-0.08176118
-3.5456629	priority	-0.08176118
-3.5456629	objective	-0.08176118
-3.5456629	wait	-0.08176118
-3.5456629	circumstances	-0.08176118
-3.5456629	serve	-0.08176118
-3.5456629	demonstrate	-0.08176118
-3.5456629	urgency	-0.08176118
-3.5456629	effective	-0.08176118
-3.5456629	response	-0.08176118
-3.5456629	appreciation	-0.08176118
-3.5456629	speakers	-0.08176118
-3.5456629	closed	-0.08176118
-3.5456629	12	-0.08176118
-3.5456629	p.m.	-0.08176118
-3.5456629	0104	-0.08176118
-3.5456629	amending	-0.08176118
-3.5456629	94	-0.08176118
-3.5456629	55	-0.08176118
-3.5456629	approximation	-0.08176118
-3.5456629	laws	-0.08176118
-3.5456629	&#91;	-0.08176118
-3.5456629	com	-0.08176118
-3.5456629	158	-0.08176118
-3.5456629	0004	-0.08176118
-3.5456629	0083	-0.08176118
-3.5456629	&#93;	-0.08176118
-3.5456629	1997	-0.08176118
-3.3949428	transitional	-0.08176118
-3.3949428	provisions	-0.16761646
-3.5456629	valid	-0.08176118
-3.5456629	limited	-0.08176118
-3.5456629	validity	-0.08176118
-3.5456629	linked	-0.08176118
-3.5456629	completion	-0.08176118
-3.3949428	standardisation	-0.08176118
-3.5456629	cen	-0.08176118
-3.5456629	delays	-0.08176118
-3.5456629	apply	-0.08176118
-3.5456629	annexes	-0.08176118
-3.5456629	adapted	-0.08176118
-3.5456629	industrial	-0.08176118
-3.5456629	developments	-0.08176118
-3.5456629	job	-0.08176118
-3.5456629	amend	-0.08176118
-3.5456629	obliged	-0.08176118
-3.5456629	brief	-0.08176118
-3.5456629	completes	-0.08176118
-3.5456629	cause	-0.08176118
-3.5456629	unnecessary	-0.08176118
-3.5456629	uncertainty	-0.08176118
-3.5456629	affect	-0.08176118
-3.5456629	existing	-0.08176118
-3.5456629	prolongs	-0.08176118
-3.5456629	postponing	-0.08176118
-3.5456629	deadlines	-0.08176118
-3.5456629	deletes	-0.08176118
-3.5456629	applicable	-0.08176118
-3.5456629	lays	-0.08176118
-3.5456629	procedures	-0.08176118
-3.5456629	ad	-0.08176118
-3.5456629	hoc	-0.08176118
-3.5456629	less	-0.08176118
-3.5456629	small	-0.08176118
-3.5456629	amounts	-0.08176118
-3.5456629	strictly	-0.08176118
-3.5456629	defined	-0.08176118
-3.5456629	local	-0.08176118
-3.5456629	consequently	-0.08176118
-3.5456629	full	-0.08176118
-3.5456629	obtain	-0.08176118
-3.5456629	powers	-0.08176118
-3.5456629	impose	-0.08176118

\2-grams:
-1.3518486	session </s>	0
-0.0021241598	. </s>	0
-0.7184537	) </s>	0
-0.03335983	? </s>	0
-1.7325219	agenda </s>	0
-1.3503332	: </s>	0
-0.76111144	! </s>	0
-0.76111144	.... </s>	0
-1.8258332	goods </s>	0
-1.4430468	road </s>	0
-0.76111144	p.m. </s>	0
-3.170683	<s> resumption	-0.034848318
-2.0762358	<s> of	-0.034848318
-0.7059914	resumption of	-0.034848318
-0.7374801	session of	-0.13761188
-1.7008315	, of	-0.2200114
-1.1669122	wish of	-0.034848318
-1.602823	you of	-0.034848318
-0.9111464	period of	-0.034848318
-0.16197343	number of	-0.034848318
-1.4035096	countries of	-0.034848318
-0.7059914	series of	-0.034848318
-1.0841208	disasters of	-0.034848318
-1.3731431	were of	-0.034848318
-0.954711	subject of	-0.034848318
-1.0841208	course of	-0.034848318
-0.92626625	part of	-0.19983378
-1.4076599	members of	-0.034848318
-0.7059914	behalf of	-0.034848318
-1.3517271	all of	-0.1095531
-1.2254058	those of	-0.034848318
-1.5326518	president of	-0.034848318
-1.2388002	point of	-0.034848318
-1.1669122	order of	-0.034848318
-1.57098	be of	-0.034848318
-0.8484845	one of	-0.22927679
-0.954711	initiative of	-0.034848318
-0.954711	type of	-0.034848318
-1.3731431	question of	-0.034848318
-1.4433622	proposal of	-0.034848318
-0.62774736	form of	-0.034848318
-0.7374801	principle of	-0.034848318
-1.7000209	is of	-0.034848318
-0.7059914	objection of	-0.034848318
-0.7059914	start of	-0.034848318
-0.4674139	presentation of	-0.19983378
-1.3267695	first of	-0.034848318
-0.954711	execution of	-0.034848318
-1.3639846	request of	-0.034848318
-1.0841208	whole of	-0.034848318
-0.7059914	weight of	-0.034848318
-0.7059914	governor of	-0.034848318
-0.7059914	stay of	-0.034848318
-1.2254058	positions of	-0.034848318
-1.3418857	case of	-0.034848318
-1.2133021	because of	-0.034848318
-0.7059914	accused of	-0.034848318
-0.7059914	beneficiaries of	-0.034848318
-1.0841208	basis of	-0.034848318
-1.3528013	out of	-0.034848318
-0.954711	facts of	-0.034848318
-1.449638	but of	-0.034848318
-0.954711	place of	-0.034848318
-1.3825107	matter of	-0.034848318
-1.0841208	meeting of	-0.034848318
-0.62774736	light of	-0.034848318
-1.6851823	safety of	-0.034848318
-0.7374801	areas of	-0.034848318
-0.7059914	college of	-0.034848318
-1.6031547	vote of	-0.034848318
-0.7059914	opinions of	-0.034848318
-1.0841208	majority of	-0.034848318
-0.7059914	irresponsible of	-0.034848318
-0.7059914	risk of	-0.034848318
-0.954711	expense of	-0.034848318
-1.2692944	item of	-0.034848318
-0.7059914	verification of	-0.034848318
-0.7059914	version of	-0.034848318
-1.0841208	conference of	-0.034848318
-1.1669122	january of	-0.034848318
-0.7059914	110 of	-0.034848318
-0.93785536	rules of	-0.034848318
-1.2852135	group of	-0.034848318
-0.7059914	party of	-0.034848318
-1.0841208	reform of	-0.034848318
-0.7059914	monopoly of	-0.034848318
-0.7059914	resolution of	-0.034848318
-0.954711	events of	-0.034848318
-1.0841208	decisions of	-0.034848318
-0.7059914	failure of	-0.034848318
-0.7059914	consists of	-0.034848318
-1.3365157	groups of	-0.034848318
-0.7059914	knowledge of	-0.034848318
-1.3036023	issue of	-0.034848318
-0.7059914	outcome of	-0.034848318
-0.7059914	exception of	-0.034848318
-0.954711	thought of	-0.034848318
-1.0841208	plan of	-0.034848318
-0.7059914	amount of	-0.034848318
-0.954711	idea of	-0.034848318
-0.954711	term of	-0.034848318
-1.1669122	tax of	-0.034848318
-0.7059914	ripple of	-0.034848318
-0.7059914	sections of	-0.034848318
-0.16197343	lack of	-0.034848318
-0.954711	lot of	-0.034848318
-0.7059914	tide of	-0.034848318
-0.62774736	result of	-0.034848318
-0.7059914	advance of	-0.034848318
-0.7059914	close of	-0.034848318
-1.0841208	business of	-0.034848318
-0.7059914	explanation of	-0.034848318
-0.7059914	record of	-0.034848318
-1.1815665	think of	-0.034848318
-1.0841208	account of	-0.034848318
-0.954711	explanations of	-0.034848318
-0.7059914	wording of	-0.034848318
-1.2768964	transport of	-0.13761188
-0.7374801	harmonisation of	-0.034848318
-1.2988259	examination of	-0.034848318
-1.3267695	requirements of	-0.034848318
-1.2692944	training of	-0.034848318
-0.954711	level of	-0.034848318
-0.7059914	distortions of	-0.034848318
-0.4674139	degree of	-0.034848318
-1.1815665	flexibility of	-0.034848318
-0.954711	substance of	-0.034848318
-0.7059914	system of	-0.034848318
-0.7059914	violations of	-0.034848318
-1.2388002	amendment of	-0.034848318
-0.7059914	frequently of	-0.034848318
-0.7059914	parts of	-0.034848318
-0.7059914	south of	-0.034848318
-0.7059914	patience of	-0.034848318
-0.7059914	thousands of	-0.034848318
-0.4674139	transportation of	-0.19983378
-0.7059914	six of	-0.034848318
-0.7059914	enactment of	-0.034848318
-0.954711	importance of	-0.034848318
-0.7059914	nature of	-0.034848318
-0.4674139	types of	-0.19983378
-0.954711	conditions of	-0.034848318
-0.7059914	% of	-0.034848318
-1.0841208	problems of	-0.034848318
-0.7059914	dispose of	-0.034848318
-0.7059914	details of	-0.034848318
-0.7059914	volume of	-0.034848318
-0.7059914	kinds of	-0.034848318
-0.7059914	organisation of	-0.034848318
-0.7059914	nonetheless of	-0.034848318
-0.7059914	fault of	-0.034848318
-0.7059914	field of	-0.034848318
-0.954711	process of	-0.034848318
-0.7059914	kilos of	-0.034848318
-0.7059914	terms of	-0.034848318
-0.7059914	approximation of	-0.034848318
-0.7059914	laws of	-0.034848318
-0.7059914	completion of	-0.034848318
-0.7059914	amounts of	-0.034848318
-1.0252279	<s> the	-0.0759345
-0.5401391	of the	-0.12636586
-0.71522397	resumed the	-0.034848318
-0.49382472	on the	-0.06805849
-1.1653185	, the	-0.056496806
-1.1313016	and the	-0.06647594
-0.898778	to the	-0.0455377
-0.61650753	in the	-0.07256189
-0.724151	that the	-0.20326701
-1.5342698	as the	-0.034848318
-1.7265204	have the	-0.034848318
-1.3152225	still the	-0.034848318
-0.7511128	during the	-0.034848318
-1.6350904	should the	-0.034848318
-0.73735565	all the	-0.034848318
-1.1941507	particularly the	-0.034848318
-1.536471	then the	-0.034848318
-0.5467731	for the	-0.13045123
-1.3813558	( the	-0.034848318
-1.5521764	) the	-0.034848318
-0.3531326	from the	-0.034848318
-1.4882388	was the	-0.034848318
-0.71522397	visited the	-0.034848318
-1.0432209	just the	-0.034848318
-0.50032496	at the	-0.034848318
-0.8610705	if the	-0.1095531
-1.468255	has the	-0.034848318
-0.97121775	concerning the	-0.034848318
-1.2567163	before the	-0.034848318
-1.120708	form the	-0.034848318
-1.1065073	meet the	-0.034848318
-0.71522397	despite the	-0.034848318
-1.2391546	is the	-0.034848318
-1.4350673	whether the	-0.034848318
-1.3624339	what the	-0.034848318
-1.6763586	not the	-0.034848318
-0.71522397	precisely the	-0.034848318
-0.56194264	with the	-0.07059641
-1.1065073	presented the	-0.034848318
-0.568843	ask the	-0.13761188
-0.27481642	by the	-0.09806152
-1.3966647	make the	-0.034848318
-0.71522397	using the	-0.034848318
-0.71522397	reprieve the	-0.034848318
-1.1065073	thank the	-0.034848318
-1.3413656	made the	-0.034848318
-0.83866465	because the	-0.034848318
-0.71522397	protect the	-0.034848318
-1.0034368	out the	-0.034848318
-1.3813558	position the	-0.034848318
-1.3624339	into the	-0.034848318
-1.4990814	but the	-0.034848318
-0.6345166	follow the	-0.034848318
-1.3040712	particular the	-0.034848318
-1.2567163	either the	-0.034848318
-1.5044023	or the	-0.034848318
-0.97121775	refer the	-0.034848318
-1.1941507	over the	-0.034848318
-0.71522397	renew the	-0.034848318
-1.120708	considering the	-0.034848318
-0.71522397	endorsed the	-0.034848318
-0.71522397	among the	-0.034848318
-1.1941507	: the	-0.034848318
-1.3152225	against the	-0.034848318
-0.71522397	approve the	-0.034848318
-1.1065073	explain the	-0.034848318
-0.71522397	outside the	-0.034848318
-1.3413656	being the	-0.034848318
-0.97121775	given the	-0.034848318
-1.1941507	how the	-0.034848318
-0.71522397	imply the	-0.034848318
-0.71522397	forego the	-0.034848318
-0.97121775	reflect the	-0.034848318
-0.71522397	establish the	-0.034848318
-0.97121775	between the	-0.034848318
-0.71522397	attend the	-0.034848318
-1.3413656	; the	-0.034848318
-1.1941507	after the	-0.034848318
-0.71522397	supported the	-0.034848318
-0.97121775	debated the	-0.034848318
-1.1065073	within the	-0.034848318
-0.97121775	introduce the	-0.034848318
-0.71522397	tread the	-0.034848318
-0.28351235	hold the	-0.22927679
-0.71522397	rejects the	-0.034848318
-1.1065073	repeat the	-0.034848318
-0.97121775	rejected the	-0.034848318
-0.28351235	regarding the	-0.034848318
-0.74651456	off the	-0.034848318
-0.71522397	add the	-0.034848318
-0.97121775	declared the	-0.034848318
-0.71522397	per the	-0.034848318
-0.71522397	reopen the	-0.034848318
-0.71522397	leave the	-0.034848318
-0.74651456	think the	-0.19983378
-0.71522397	adopt the	-0.034848318
-1.3040712	take the	-0.034848318
-0.97121775	than the	-0.034848318
-0.74651456	accept the	-0.034848318
-0.71522397	welcome the	-0.034848318
-0.47176355	harmonising the	-0.034848318
-0.71522397	obliges the	-0.034848318
-0.71522397	organise the	-0.034848318
-0.47176355	concerns the	-0.034848318
-0.71522397	implementing the	-0.034848318
-1.207165	support the	-0.034848318
-0.71522397	implement the	-0.034848318
-0.71522397	rebuild the	-0.034848318
-0.71522397	stretched the	-0.034848318
-0.71522397	lament the	-0.034848318
-1.1065073	congratulate the	-0.034848318
-0.97121775	involving the	-0.034848318
-0.71522397	protecting the	-0.034848318
-0.71522397	include the	-0.034848318
-1.1065073	until the	-0.034848318
-0.97121775	down the	-0.034848318
-0.71522397	monitor the	-0.034848318
-0.71522397	keep the	-0.034848318
-0.71522397	improving the	-0.034848318
-0.71522397	harmonises the	-0.034848318
-0.71522397	guaranteeing the	-0.034848318
-0.71522397	demonstrate the	-0.034848318
-0.71522397	affect the	-0.034848318
-2.7462542	the session	-0.034848318
-2.0058095	@-@ session	-0.034848318
-0.90749454	<s> i	-0.25158924
-1.0751818	, i	-0.23739424
-1.5015621	and i	-0.07059641
-1.6916006	that i	-0.034848318
-1.223323	although i	-0.034848318
-2.2660007	as i	-0.034848318
-2.0464704	all i	-0.034848318
-1.223323	something i	-0.034848318
-1.8257871	which i	-0.034848318
-1.571146	what i	-0.034848318
-1.7461267	when i	-0.034848318
-1.6663648	why i	-0.034848318
-1.3175062	but i	-0.16144188
-1.6663648	since i	-0.034848318
-2.0292716	commission i	-0.034848318
-1.3420223	voted i	-0.034848318
-2.529615	i declare	-0.034848318
-0.7648802	declare resumed	-0.034848318
-2.857151	of european	-0.034848318
-1.8092799	the european	-0.2200114
-2.2310026	a european	-0.19983378
-0.76327753	corresponding european	-0.034848318
-1.0621195	enacting european	-0.034848318
-1.0621195	eastern european	-0.034848318
-1.8952936	of parliament	-0.13761188
-1.2106805	european parliament	-0.093548715
-2.7762032	, parliament	-0.034848318
-2.1461427	and parliament	-0.034848318
-2.0911188	a parliament	-0.034848318
-2.5267746	in parliament	-0.034848318
-1.198358	this parliament	-0.07059641
-1.606364	( parliament	-0.034848318
-1.845465	from parliament	-0.034848318
-0.7568114	expressing parliament	-0.034848318
-1.4227527	before parliament	-0.034848318
-1.2122748	when parliament	-0.034848318
-1.6473317	make parliament	-0.034848318
-1.8750538	so parliament	-0.034848318
-1.8654658	because parliament	-0.034848318
-0.7568114	brussels parliament	-0.034848318
-0.7568114	strasbourg parliament	-0.034848318
-2.0598242	- parliament	-0.034848318
-1.0493457	between parliament	-0.034848318
-0.7568114	whatever parliament	-0.034848318
-1.0493457	though parliament	-0.034848318
-2.2806213	parliament adjourned	-0.034848318
-1.8682768	parliament on	-0.034848318
-0.74002486	adjourned on	-0.034848318
-1.5031656	, on	-0.3157118
-1.9208907	and on	-0.19983378
-1.5517821	you on	-0.034848318
-1.4163663	still on	-0.034848318
-1.1703229	disasters on	-0.034848318
-0.58391744	debate on	-0.08319763
-1.9893159	it on	-0.034848318
-1.7926596	do on	-0.034848318
-1.5603913	question on	-0.034848318
-1.2736164	up on	-0.034848318
-1.5436571	report on	-0.034848318
-1.4927726	done on	-0.034848318
-2.0330594	is on	-0.034848318
-0.74002486	i.e. on	-0.034848318
-1.1703229	him on	-0.034848318
-1.5374324	here on	-0.034848318
-1.4575247	made on	-0.034848318
-1.5038582	position on	-0.034848318
-1.0170125	kept on	-0.034848318
-1.5978587	agenda on	-0.034848318
-1.1703229	meeting on	-0.034848318
-1.940798	safety on	-0.034848318
-1.5374324	since on	-0.034848318
-1.1703229	committee on	-0.034848318
-1.7212961	also on	-0.034848318
-0.6271041	vote on	-0.13761188
-1.1703229	questions on	-0.034848318
-1.0170125	newspaper on	-0.034848318
-1.2736164	included on	-0.034848318
-1.2736164	embargo on	-0.034848318
-1.2736164	: on	-0.034848318
-1.2736164	statement on	-0.034848318
-1.2736164	speak on	-0.034848318
-1.7209374	programme on	-0.034848318
-1.8449464	- on	-0.034848318
-1.2812581	opinion on	-0.034848318
-1.1703229	manner on	-0.034848318
-1.0170125	texts on	-0.034848318
-1.1703229	put on	-0.034848318
-1.349909	only on	-0.034848318
-0.74002486	comment on	-0.034848318
-1.0170125	agree on	-0.034848318
-1.4575247	action on	-0.034848318
-0.74002486	back on	-0.034848318
-1.4575247	council on	-0.034848318
-0.74002486	along on	-0.034848318
-0.74002486	remain on	-0.034848318
-1.0170125	ruling on	-0.034848318
-1.4094073	advisers on	-0.034848318
-1.2736164	koch on	-0.034848318
-1.2921034	directive on	-0.13761188
-1.4094073	training on	-0.034848318
-1.1703229	ec on	-0.034848318
-0.86108935	amendment on	-0.19983378
-1.0170125	force on	-0.034848318
-0.74002486	damage on	-0.034848318
-1.1681355	work on	-0.034848318
-0.74002486	highlighted on	-0.034848318
-0.74002486	fall on	-0.034848318
-2.633608	on friday	-0.034848318
-0.7648802	friday 17	-0.034848318
-0.7648802	17 december	-0.034848318
-0.764147	december 1999	-0.034848318
-1.6585087	( 1999	-0.034848318
-2.1977253	- 1999	-0.034848318
-0.5584175	/ 1999	-0.19983378
-1.2704548	parliament ,	-0.034848318
-1.1324549	1999 ,	-0.034848318
-1.1292742	and ,	-0.03484829
-1.425994	would ,	-0.034848318
-1.4508579	like ,	-0.034848318
-1.0688565	again ,	-0.034848318
-1.5556961	to ,	-0.034848318
-1.0688565	wish ,	-0.034848318
-1.014758	you ,	-0.034848318
-1.0302756	year ,	-0.034848318
-1.0242761	hope ,	-0.034848318
-1.247866	that ,	-0.075952224
-1.2556622	period ,	-0.034848318
-1.0015732	although ,	-0.034848318
-1.4322182	as ,	-0.034848318
-1.4022658	will ,	-0.034848318
-1.4623274	have ,	-0.034848318
-0.669505	seen ,	-0.034848318
-0.669505	materialise ,	-0.034848318
-1.2461275	countries ,	-0.034848318
-0.8919805	dreadful ,	-0.034848318
-1.0688565	requested ,	-0.034848318
-1.0731379	debate ,	-0.034848318
-1.4510881	this ,	-0.034848318
-1.0015732	course ,	-0.034848318
-0.669505	days ,	-0.034848318
-0.669505	meantime ,	-0.034848318
-1.0015732	silence ,	-0.034848318
-0.8053908	all ,	-0.1095531
-0.4330815	concerned ,	-0.034848318
-1.1148758	those ,	-0.034848318
-0.669505	storms ,	-0.034848318
-0.669505	rise ,	-0.034848318
-1.0900943	then ,	-0.034848318
-1.5748745	for ,	-0.034848318
-0.58373	president ,	-0.064752616
-0.8919805	aware ,	-0.034848318
-1.3274415	one ,	-0.034848318
-1.0015732	recently ,	-0.034848318
-0.669505	ponnambalam ,	-0.034848318
-1.1485093	months ,	-0.034848318
-1.2036953	do ,	-0.19983378
-1.3336073	can ,	-0.034848318
-0.44974518	yes ,	-0.034848318
-0.8919805	evans ,	-0.034848318
-1.3357877	if ,	-0.034848318
-0.669505	agrees ,	-0.034848318
-1.3992208	has ,	-0.034848318
-1.2247695	question ,	-0.034848318
-1.1324549	thursday ,	-0.034848318
-1.1219659	which ,	-0.13761188
-1.2356646	report ,	-0.034848318
-1.2768499	proposal ,	-0.034848318
-1.0886714	principle ,	-0.034848318
-0.7101358	believe ,	-0.034848318
-1.4281715	is ,	-0.034848318
-1.0242761	policy ,	-0.034848318
-0.88748753	know ,	-0.034848318
-1.4098692	not ,	-0.034848318
-1.0604104	time ,	-0.034848318
-1.1485093	may ,	-0.034848318
-1.0015732	date ,	-0.034848318
-0.8919805	set ,	-0.034848318
-0.8919805	texas ,	-0.034848318
-0.669505	america ,	-0.034848318
-1.223205	request ,	-0.034848318
-1.2135023	member ,	-0.034848318
-0.669505	zimeray ,	-0.034848318
-1.0015732	presented ,	-0.034848318
-0.669505	signed ,	-0.034848318
-0.44974518	however ,	-0.034848318
-1.2362889	now ,	-0.034848318
-0.8919805	community ,	-0.034848318
-0.669505	representations ,	-0.034848318
-0.8919805	represent ,	-0.034848318
-0.669505	bush ,	-0.034848318
-0.669505	segni ,	-0.034848318
-1.1111408	so ,	-0.034848318
-0.6006258	indeed ,	-0.034848318
-0.9187117	adopted ,	-0.034848318
-0.9187117	case ,	-0.034848318
-1.2685267	us ,	-0.034848318
-1.223205	here ,	-0.034848318
-1.3600156	are ,	-0.034848318
-0.8919805	russia ,	-0.034848318
-1.1148758	too ,	-0.034848318
-1.3336073	because ,	-0.034848318
-1.2362889	these ,	-0.034848318
-1.0015732	sea ,	-0.034848318
-0.9256205	out ,	-0.034848318
-1.2110928	important ,	-0.034848318
-0.9187117	position ,	-0.034848318
-0.669505	schroedter ,	-0.034848318
-0.8919805	firstly ,	-0.034848318
-0.8919805	fact ,	-0.034848318
-1.0710026	but ,	-0.034848318
-0.8919805	channel ,	-0.034848318
-0.8919805	month ,	-0.034848318
-1.0600195	therefore ,	-0.034848318
-1.0688565	well ,	-0.034848318
-0.669505	gorsel ,	-0.034848318
-1.2986178	agenda ,	-0.034848318
-0.8919805	quaestors ,	-0.034848318
-1.1148758	wednesday ,	-0.034848318
-1.3456988	safety ,	-0.034848318
-1.1485093	particular ,	-0.034848318
-1.0015732	1998 ,	-0.034848318
-0.669505	drill ,	-0.034848318
-0.669505	lynne ,	-0.034848318
-1.3021892	also ,	-0.034848318
-0.8919805	regulations ,	-0.034848318
-1.4356816	vote ,	-0.034848318
-0.8919805	palacio ,	-0.034848318
-1.0688565	included ,	-0.034848318
-1.1885772	them ,	-0.034848318
-0.669505	reconsider ,	-0.034848318
-0.669505	intervention ,	-0.034848318
-0.8919805	occasion ,	-0.034848318
-0.669505	fuster ,	-0.034848318
-1.1885772	present ,	-0.034848318
-1.0015732	message ,	-0.034848318
-1.2532586	today ,	-0.034848318
-0.8919805	indonesia ,	-0.034848318
-0.8919805	said ,	-0.034848318
-0.8919805	future ,	-0.034848318
-0.669505	event ,	-0.034848318
-1.1148758	presidents ,	-0.034848318
-0.6006258	procedure ,	-0.034848318
-1.3195487	group ,	-0.034848318
-1.1485093	socialists ,	-0.034848318
-1.3235373	commission ,	-0.034848318
-0.77605987	years ,	-0.034848318
-1.0015732	reform ,	-0.034848318
-1.0688565	crespo ,	-0.034848318
-0.8919805	wishes ,	-0.034848318
-1.1148758	prodi ,	-0.034848318
-1.1308553	programme ,	-0.034848318
-1.0886714	legislature ,	-0.034848318
-0.7017374	september ,	-0.034848318
-0.8919805	july ,	-0.034848318
-1.0015732	end ,	-0.034848318
-1.0688565	possible ,	-0.034848318
-1.0015732	voting ,	-0.034848318
-0.669505	alternatively ,	-0.034848318
-0.7017374	opinion ,	-0.034848318
-0.669505	thesis ,	-0.034848318
-0.8919805	unknown ,	-0.034848318
-0.669505	writing ,	-0.034848318
-1.0015732	earlier ,	-0.034848318
-1.0688565	february ,	-0.034848318
-0.669505	listen ,	-0.034848318
-0.8919805	reflect ,	-0.034848318
-1.0688565	mentioned ,	-0.034848318
-0.669505	otherwise ,	-0.034848318
-0.8919805	text ,	-0.034848318
-0.44974518	hand ,	-0.034848318
-1.174235	issue ,	-0.034848318
-1.0015732	hänsch ,	-0.034848318
-1.1148758	same ,	-0.034848318
-0.44974518	recall ,	-0.034848318
-0.669505	knows ,	-0.034848318
-0.669505	framework ,	-0.034848318
-1.0688565	2000 ,	-0.034848318
-1.0015732	regard ,	-0.034848318
-1.1485093	cannot ,	-0.034848318
-1.0015732	respect ,	-0.034848318
-1.174235	action ,	-0.034848318
-1.0886714	say ,	-0.034848318
-0.8919805	originally ,	-0.034848318
-0.8919805	decides ,	-0.034848318
-1.0015732	sitting ,	-0.034848318
-1.0688565	tax ,	-0.034848318
-1.0886714	responsible ,	-0.034848318
-0.8919805	correct ,	-0.034848318
-0.669505	unanimous ,	-0.034848318
-0.669505	electronically ,	-0.034848318
-1.0242761	card ,	-0.034848318
-0.8919805	themselves ,	-0.034848318
-0.669505	gentlemen ,	-0.034848318
-1.0015732	business ,	-0.034848318
-0.669505	floor ,	-0.034848318
-0.669505	sorry ,	-0.034848318
-0.8919805	cox ,	-0.034848318
-1.0015732	minutes ,	-0.034848318
-1.0015732	tomorrow ,	-0.034848318
-1.0015732	correctly ,	-0.034848318
-0.8374451	transport ,	-0.034848318
-1.0688565	koch ,	-0.034848318
-0.669505	tourism ,	-0.034848318
-0.76959956	directive ,	-0.034848318
-1.1148758	road ,	-0.034848318
-1.1148758	waterways ,	-0.034848318
-0.7017374	commissioner ,	-0.034848318
-1.1485093	training ,	-0.034848318
-1.0015732	ec ,	-0.034848318
-0.44974518	secondly ,	-0.034848318
-0.669505	thirdly ,	-0.034848318
-1.3031958	minimum ,	-0.034848318
-1.1485093	standards ,	-0.034848318
-1.0015732	reading ,	-0.034848318
-0.8919805	substance ,	-0.034848318
-1.0015732	example ,	-0.034848318
-0.8919805	force ,	-0.034848318
-0.15777831	roads ,	-0.034848318
-1.1324549	disaster ,	-0.034848318
-0.669505	austrian ,	-0.034848318
-0.669505	memory ,	-0.034848318
-0.8919805	tunnel ,	-0.034848318
-1.2575127	work ,	-0.034848318
-0.669505	project ,	-0.034848318
-0.669505	available ,	-0.034848318
-1.0015732	enforcement ,	-0.034848318
-0.669505	context ,	-0.034848318
-0.8919805	tunnels ,	-0.034848318
-0.669505	heart ,	-0.034848318
-0.669505	london ,	-0.034848318
-0.669505	norway ,	-0.034848318
-1.0688565	rapporteur ,	-0.034848318
-1.0015732	technical ,	-0.034848318
-0.669505	pity ,	-0.034848318
-0.669505	harmonised ,	-0.034848318
-0.669505	adr ,	-0.034848318
-0.669505	belgium ,	-0.034848318
-0.7017374	risks ,	-0.034848318
-0.669505	furthermore ,	-0.034848318
-0.669505	finland ,	-0.034848318
-1.0015732	cargo ,	-0.034848318
-0.669505	short ,	-0.034848318
-1.0015732	companies ,	-0.034848318
-0.669505	2001 ,	-0.034848318
-0.669505	communautaire ,	-0.034848318
-0.669505	examinations ,	-0.034848318
-0.669505	uniform ,	-0.034848318
-0.669505	established ,	-0.034848318
-0.669505	finally ,	-0.034848318
-0.8919805	quickly ,	-0.034848318
-0.8919805	country ,	-0.034848318
-0.669505	sweden ,	-0.034848318
-0.669505	germany ,	-0.034848318
-1.0015732	austria ,	-0.034848318
-0.8919805	rack ,	-0.034848318
-0.8919805	briefly ,	-0.034848318
-0.669505	circumstances ,	-0.034848318
-0.669505	1997 ,	-0.034848318
-1.0015732	cen ,	-0.034848318
-0.669505	deadlines ,	-0.034848318
-0.669505	applicable ,	-0.034848318
-0.98517334	parliament and	-0.034848318
-1.3220731	, and	-0.08408256
-1.4029543	once and	-0.034848318
-1.5692719	debate and	-0.034848318
-1.3385977	house and	-0.034848318
-0.72386307	rose and	-0.034848318
-1.6152624	president and	-0.034848318
-0.72386307	press and	-0.034848318
-0.72386307	explosions and	-0.034848318
-1.1280942	lanka and	-0.034848318
-1.8239744	it and	-0.034848318
-1.500912	his and	-0.034848318
-1.2207149	come and	-0.034848318
-1.2207149	up and	-0.034848318
-1.2980989	thursday and	-0.034848318
-1.0603048	report and	-0.034848318
-0.64081573	policy and	-0.034848318
-1.2207149	kind and	-0.034848318
-1.5443695	time and	-0.034848318
-0.9869206	execution and	-0.034848318
-1.1280942	him and	-0.034848318
-1.4481193	request and	-0.034848318
-0.72386307	office and	-0.034848318
-1.420986	case and	-0.034848318
-1.3484809	clear and	-0.034848318
-1.2207149	right and	-0.034848318
-0.9869206	activity and	-0.034848318
-0.9869206	facts and	-0.034848318
-1.420986	position and	-0.034848318
-0.72386307	word and	-0.034848318
-0.9869206	channels and	-0.034848318
-1.4711165	matter and	-0.034848318
-0.47578937	health and	-0.19983378
-1.2207149	legislation and	-0.034848318
-0.72386307	gonzález and	-0.034848318
-0.72386307	topical and	-0.034848318
-0.9869206	monday and	-0.034848318
-1.6312027	commission and	-0.034848318
-1.2980989	years and	-0.034848318
-0.9869206	favour and	-0.034848318
-1.3484809	against and	-0.034848318
-1.2875463	prodi and	-0.034848318
-1.2207149	political and	-0.034848318
-1.6102238	programme and	-0.034848318
-1.2320343	september and	-0.034848318
-0.9869206	treaties and	-0.034848318
-1.2320343	citizens and	-0.034848318
-1.2207149	possible and	-0.034848318
-0.7266897	- and	-0.12127183
-0.72386307	corroborate and	-0.034848318
-1.4299374	taken and	-0.034848318
-0.72386307	internet and	-0.034848318
-0.9869206	delay and	-0.034848318
-0.9869206	texts and	-0.034848318
-1.3791264	issue and	-0.034848318
-0.72386307	behaviour and	-0.034848318
-1.1280942	hänsch and	-0.034848318
-1.3385977	cannot and	-0.034848318
-0.9869206	together and	-0.034848318
-0.9869206	ppe and	-0.034848318
-0.9869206	prepared and	-0.034848318
-0.72386307	convenient and	-0.034848318
-0.47578937	ladies and	-0.19983378
-0.72386307	noted and	-0.034848318
-1.3385977	advisers and	-0.034848318
-1.6882892	transport and	-0.034848318
-1.516321	goods and	-0.034848318
-1.5961137	directive and	-0.034848318
-1.2320343	rail and	-0.034848318
-1.2875463	waterways and	-0.034848318
-0.72386307	instruction and	-0.034848318
-1.1280942	transported and	-0.034848318
-0.72386307	structures and	-0.034848318
-0.72386307	costs and	-0.034848318
-1.3385977	standards and	-0.034848318
-0.75496453	flexibility and	-0.034848318
-0.9869206	subsidiarity and	-0.034848318
-1.1280942	reading and	-0.034848318
-0.47578937	railways and	-0.034848318
-0.9869206	cost and	-0.034848318
-1.4985178	work and	-0.034848318
-0.72386307	north and	-0.034848318
-1.1280942	enforcement and	-0.034848318
-0.72386307	net and	-0.034848318
-0.9869206	granted and	-0.034848318
-0.72386307	motivated and	-0.034848318
-0.72386307	accurate and	-0.034848318
-1.1280942	technical and	-0.034848318
-0.9869206	importance and	-0.034848318
-0.72386307	netherlands and	-0.034848318
-0.9869206	reports and	-0.034848318
-0.72386307	known and	-0.034848318
-0.72386307	employees and	-0.034848318
-0.72386307	logical and	-0.034848318
-0.9869206	rack and	-0.034848318
-0.72386307	unilaterally and	-0.034848318
-0.72386307	cooperate and	-0.034848318
-0.72386307	interventions and	-0.034848318
-0.72386307	margins and	-0.034848318
-0.72386307	margarine and	-0.034848318
-0.72386307	speakers and	-0.034848318
-2.8867183	<s> would	-0.034848318
-0.9329291	i would	-0.2533698
-2.9011354	, would	-0.034848318
-2.051069	there would	-0.034848318
-1.2459288	it would	-0.17192546
-1.2258356	suggested would	-0.034848318
-1.8340864	which would	-0.034848318
-2.4416013	we would	-0.034848318
-2.0300522	vote would	-0.034848318
-1.6252294	states would	-0.034848318
-2.017432	group would	-0.034848318
-2.0448844	commission would	-0.034848318
-0.759817	hypothesis would	-0.034848318
-1.0552602	certificates would	-0.034848318
-3.0472536	, like	-0.034848318
-2.0958405	would like	-0.034848318
-2.077357	should like	-0.034848318
-1.5916574	first like	-0.034848318
-1.7742699	now like	-0.034848318
-1.6939069	here like	-0.034848318
-1.0603945	firstly like	-0.034848318
-1.9913211	also like	-0.034848318
-2.6954825	, once	-0.034848318
-1.8675532	like once	-0.034848318
-1.0629846	courts once	-0.034848318
-1.888131	therefore once	-0.034848318
-1.3605211	voted once	-0.034848318
-0.9707935	once again	-0.034848318
-1.2399207	raise again	-0.034848318
-1.9819007	so again	-0.034848318
-2.1077113	<s> to	-0.034848318
-1.6170027	parliament to	-0.034848318
-1.6056018	, to	-0.034848318
-1.3365308	and to	-0.034848318
-0.32188255	like to	-0.105668135
-1.1791848	again to	-0.034848318
-1.1791848	wish to	-0.034848318
-1.4187322	you to	-0.034848318
-1.6614118	as to	-0.034848318
-0.9431719	have to	-0.034848318
-0.71019864	failed to	-0.034848318
-1.4247569	members to	-0.034848318
-1.284889	house to	-0.034848318
-1.1791848	order to	-0.034848318
-1.4936881	had to	-0.034848318
-1.5578924	it to	-0.034848318
-1.0942383	letter to	-0.034848318
-0.9621988	her to	-0.034848318
-1.2247671	can to	-0.034848318
-0.71019864	reconciliation to	-0.034848318
-1.0942383	difficult to	-0.034848318
-1.6220517	has to	-0.034848318
-1.393048	question to	-0.034848318
-0.71019864	relates to	-0.034848318
-1.1791848	come to	-0.034848318
-1.1791848	up to	-0.034848318
-1.0942383	programmes to	-0.034848318
-1.0942383	comes to	-0.034848318
-1.1842322	proposal to	-0.034848318
-0.46940207	fail to	-0.034848318
-1.4177251	is to	-0.034848318
-0.46940207	want to	-0.034848318
-1.1791848	kind to	-0.034848318
-1.4880216	not to	-0.034848318
-1.1550095	time to	-0.034848318
-0.9621988	prior to	-0.034848318
-0.71019864	sentenced to	-0.034848318
-1.4101275	now to	-0.034848318
-0.71019864	power to	-0.034848318
-0.63083684	attention to	-0.034848318
-0.9621988	nikitin to	-0.034848318
-1.1011028	us to	-0.034848318
-1.109533	pleased to	-0.034848318
-1.320504	made to	-0.034848318
-0.71019864	access to	-0.034848318
-1.1791848	right to	-0.034848318
-1.0928537	more to	-0.034848318
-1.3700392	out to	-0.034848318
-1.3595321	position to	-0.034848318
-0.71019864	able to	-0.034848318
-0.71019864	sent to	-0.034848318
-1.4565117	therefore to	-0.034848318
-1.4021132	matter to	-0.034848318
-1.0942383	me to	-0.034848318
-0.71019864	adhere to	-0.034848318
-0.63083684	seems to	-0.034848318
-0.46940207	keen to	-0.034848318
-1.331486	them to	-0.034848318
-0.46940207	referred to	-0.034848318
-0.9621988	properly to	-0.034848318
-1.0942383	message to	-0.034848318
-0.71019864	refusing to	-0.034848318
-1.1791848	eu to	-0.034848318
-1.3492732	states to	-0.034848318
-0.71019864	refuse to	-0.034848318
-1.284889	item to	-0.034848318
-0.71019864	pursuant to	-0.034848318
-1.320504	amendments to	-0.034848318
-0.46940207	relating to	-0.034848318
-1.527772	group to	-0.034848318
-1.5352988	commission to	-0.034848318
-1.1791848	speak to	-0.034848318
-1.1791848	propose to	-0.034848318
-0.9621988	wishes to	-0.034848318
-1.0942383	commitment to	-0.034848318
-1.0942383	speech to	-0.034848318
-1.1791848	voted to	-0.034848318
-1.6064495	- to	-0.034848318
-0.9621988	simply to	-0.034848318
-0.20940942	ready to	-0.093548715
-0.71019864	according to	-0.034848318
-1.2394768	agreed to	-0.034848318
-0.71019864	appear to	-0.034848318
-0.9621988	duty to	-0.034848318
-0.71019864	meant to	-0.034848318
-0.7415976	proceed to	-0.034848318
-0.9621988	asking to	-0.034848318
-0.46940207	unable to	-0.034848318
-0.71019864	someone to	-0.034848318
-1.2394768	votes to	-0.034848318
-0.71019864	needs to	-0.034848318
-0.16243741	need to	-0.034848318
-1.0942383	regard to	-0.034848318
-0.71019864	open to	-0.034848318
-0.71019864	addition to	-0.034848318
-0.9621988	prepared to	-0.034848318
-0.71019864	preaching to	-0.034848318
-0.71019864	dared to	-0.034848318
-0.9621988	lot to	-0.034848318
-0.71019864	entitled to	-0.034848318
-0.71019864	allowed to	-0.034848318
-0.71019864	acceptable to	-0.034848318
-0.71019864	object to	-0.034848318
-1.4377898	goods to	-0.034848318
-0.71019864	view to	-0.034848318
-0.71019864	needed to	-0.034848318
-0.71019864	exclusively to	-0.034848318
-0.71019864	contribute to	-0.034848318
-1.2522613	amendment to	-0.034848318
-1.0942383	accidents to	-0.034848318
-1.2522613	disaster to	-0.034848318
-1.0969586	work to	-0.034848318
-0.9621988	continued to	-0.034848318
-0.9621988	traffic to	-0.034848318
-0.71019864	answer to	-0.034848318
-0.71019864	law to	-0.034848318
-0.71019864	eyes to	-0.034848318
-0.71019864	continuing to	-0.034848318
-0.9621988	forward to	-0.034848318
-0.71019864	fight to	-0.034848318
-0.71019864	initiatives to	-0.034848318
-0.71019864	needless to	-0.034848318
-0.71019864	adjacent to	-0.034848318
-0.71019864	compulsory to	-0.034848318
-0.9621988	especially to	-0.034848318
-0.63083684	having to	-0.034848318
-0.71019864	adequate to	-0.034848318
-0.71019864	paid to	-0.034848318
-0.9621988	briefly to	-0.034848318
-0.71019864	led to	-0.034848318
-0.71019864	serve to	-0.034848318
-0.71019864	response to	-0.034848318
-0.71019864	appreciation to	-0.034848318
-0.71019864	linked to	-0.034848318
-0.71019864	adapted to	-0.034848318
-0.71019864	obliged to	-0.034848318
-3.1258113	the wish	-0.034848318
-2.9428887	to wish	-0.034848318
-2.2386856	you wish	-0.034848318
-1.8693987	not wish	-0.19983378
-1.9289317	<s> you	-0.034848318
-2.518194	, you	-0.034848318
-2.5063264	to you	-0.034848318
-1.3322546	wish you	-0.034848318
-2.1181564	that you	-0.034848318
-1.3684374	as you	-0.034848318
-2.3449817	for you	-0.034848318
-1.8608724	can you	-0.034848318
-1.0485075	type you	-0.034848318
-1.3898165	if you	-0.034848318
-2.1933072	which you	-0.034848318
-1.5563741	what you	-0.034848318
-1.7240969	when you	-0.034848318
-1.082583	ask you	-0.13761188
-0.7563838	institution you	-0.034848318
-1.2158713	thank you	-0.034848318
-0.7563838	compliment you	-0.034848318
-0.6642198	tell you	-0.19983378
-1.0485075	remind you	-0.034848318
-1.0485075	represented you	-0.034848318
-1.2158713	see you	-0.034848318
-0.7563838	urge you	-0.034848318
-1.4899278	of a	-0.034848318
-1.0832511	on a	-0.034848318
-1.9228959	, a	-0.034848318
-1.6547384	and a	-0.034848318
-1.594576	to a	-0.034848318
-1.8766527	you a	-0.034848318
-1.1648389	in a	-0.058350507
-1.9802985	that a	-0.034848318
-0.74043673	enjoyed a	-0.034848318
-1.3187515	as a	-0.034848318
-1.33111	have a	-0.034848318
-0.74043673	suffered a	-0.034848318
-1.2750251	requested a	-0.034848318
-0.74043673	observe a	-0.034848318
-1.308195	for a	-0.034848318
-0.74043673	observed a	-0.034848318
-1.7188789	) a	-0.034848318
-1.2750251	order a	-0.034848318
-1.3545408	be a	-0.034848318
-1.7400343	from a	-0.034848318
-1.8560609	there a	-0.034848318
-1.8134184	been a	-0.034848318
-1.6650453	was a	-0.034848318
-1.0940555	just a	-0.19983378
-0.74043673	write a	-0.034848318
-1.7956245	do a	-0.034848318
-0.74043673	seek a	-0.034848318
-0.48339304	contains a	-0.034848318
-1.0893332	is a	-0.060551476
-1.0177922	merely a	-0.034848318
-1.0415187	not a	-0.034848318
-0.90154517	with a	-0.08319763
-1.5338489	make a	-0.034848318
-1.459678	made a	-0.034848318
-1.0177922	solely a	-0.034848318
-1.0177922	examine a	-0.034848318
-1.0177922	setting a	-0.034848318
-0.74043673	get a	-0.034848318
-1.5399185	since a	-0.034848318
-1.3011956	or a	-0.034848318
-0.99504507	them a	-0.034848318
-1.0177922	send a	-0.034848318
-1.4182073	against a	-0.034848318
-1.7241015	programme a	-0.034848318
-0.74043673	initially a	-0.034848318
-1.0177922	become a	-0.034848318
-1.5183218	- a	-0.034848318
-1.0177922	introducing a	-0.034848318
-1.1793543	bearing a	-0.034848318
-0.9343908	hear a	-0.034848318
-1.2750251	after a	-0.034848318
-1.1714331	within a	-0.034848318
-1.0177922	introduce a	-0.034848318
-1.2825631	give a	-0.034848318
-1.1714331	adopting a	-0.034848318
-1.0177922	achieve a	-0.034848318
-1.1714331	example a	-0.034848318
-0.74043673	plays a	-0.034848318
-0.74043673	doubtless a	-0.034848318
-0.74043673	holding a	-0.034848318
-2.8023567	a happy	-0.034848318
-3.1919777	the new	-0.034848318
-2.7751997	a new	-0.034848318
-0.76458234	happy new	-0.034848318
-2.6729898	the year	-0.034848318
-0.79346794	new year	-0.034848318
-2.1510518	this year	-0.034848318
-1.9827753	@-@ year	-0.034848318
-0.76327753	34 year	-0.034848318
-1.0347459	last year	-0.034848318
-1.3559492	<s> in	-0.10181759
-1.7166407	parliament in	-0.034848318
-1.2742904	, in	-0.09210814
-1.7733123	and in	-0.034848318
-1.15745	year in	-0.19983378
-1.5733519	that in	-0.034848318
-0.6999763	people in	-0.13761188
-1.4632335	were in	-0.034848318
-0.9869206	subject in	-0.034848318
-1.7133337	all in	-0.034848318
-1.7141588	be in	-0.034848318
-1.6537898	been in	-0.034848318
-0.72386307	killings in	-0.034848318
-1.1280942	recently in	-0.034848318
-1.6285408	it in	-0.034848318
-0.72386307	deaths in	-0.034848318
-1.6881236	do in	-0.034848318
-1.5299784	an in	-0.034848318
-0.9869206	initiative in	-0.034848318
-1.2875463	before in	-0.034848318
-1.5484638	proposal in	-0.034848318
-0.9869206	reduction in	-0.034848318
-1.4289706	done in	-0.034848318
-1.470182	is in	-0.034848318
-1.7470884	not in	-0.034848318
-0.9869206	texas in	-0.034848318
-1.7195058	we in	-0.034848318
-1.2875463	quite in	-0.034848318
-1.420986	adopted in	-0.034848318
-1.420986	case in	-0.034848318
-1.4481193	here in	-0.034848318
-1.2320343	much in	-0.034848318
-1.1280942	basis in	-0.034848318
-0.72386307	expressed in	-0.034848318
-0.9869206	channels in	-0.034848318
-0.72386307	examined in	-0.034848318
-0.9999881	safety in	-0.034848318
-1.2875463	either in	-0.034848318
-1.2207149	ourselves in	-0.034848318
-1.5911447	also in	-0.034848318
-1.7090838	vote in	-0.034848318
-0.72386307	appeared in	-0.034848318
-1.3884201	them in	-0.034848318
-0.9869206	answered in	-0.034848318
-1.2207149	embargo in	-0.034848318
-0.9869206	indonesia in	-0.034848318
-1.1280942	majority in	-0.034848318
-1.3917673	dangerous in	-0.034848318
-1.4122156	states in	-0.034848318
-0.72386307	coup in	-0.034848318
-1.2875463	presidents in	-0.034848318
-1.3884201	rules in	-0.034848318
-1.2207149	statement in	-0.034848318
-1.1280942	objectives in	-0.034848318
-1.2207149	speak in	-0.034848318
-0.72386307	speaker in	-0.034848318
-1.6102238	programme in	-0.034848318
-1.1280942	commitment in	-0.034848318
-0.16391689	confidence in	-0.034848318
-1.7018405	- in	-0.034848318
-1.0188266	taken in	-0.034848318
-0.64081573	bearing in	-0.19983378
-0.9869206	discussed in	-0.034848318
-1.2320343	proceed in	-0.034848318
-1.3791264	; in	-0.034848318
-0.72386307	alone in	-0.034848318
-1.2207149	2000 in	-0.034848318
-0.72386307	2005 in	-0.034848318
-0.75496453	say in	-0.034848318
-0.9869206	reached in	-0.034848318
-1.1280942	working in	-0.034848318
-0.9869206	&quot; in	-0.034848318
-1.1403005	result in	-0.034848318
-0.9869206	entered in	-0.034848318
-1.3385977	advisers in	-0.034848318
-1.6882892	transport in	-0.034848318
-1.516321	goods in	-0.034848318
-1.2320343	harmonisation in	-0.034848318
-0.72386307	frank in	-0.034848318
-0.9869206	level in	-0.034848318
-0.72386307	increase in	-0.034848318
-0.72386307	variations in	-0.034848318
-0.72386307	stands in	-0.034848318
-0.9869206	guarantees in	-0.034848318
-0.72386307	change in	-0.034848318
-1.1280942	example in	-0.034848318
-0.72386307	destroyed in	-0.034848318
-0.72386307	loose in	-0.034848318
-0.72386307	municipalities in	-0.034848318
-0.72386307	hole in	-0.034848318
-0.9869206	tunnels in	-0.034848318
-0.72386307	crash in	-0.034848318
-0.72386307	tool in	-0.034848318
-0.72386307	drive in	-0.034848318
-0.72386307	research in	-0.034848318
-0.72386307	ports in	-0.034848318
-0.72386307	activities in	-0.034848318
-0.9869206	down in	-0.034848318
-0.72386307	priorities in	-0.034848318
-0.72386307	delays in	-0.034848318
-0.72386307	consequently in	-0.034848318
-3.200361	the hope	-0.034848318
-1.970727	i hope	-0.034848318
-1.5454726	<s> that	-0.24621056
-2.1181219	of that	-0.034848318
-1.678392	, that	-0.15688649
-1.1692923	and that	-0.13761188
-2.0652268	to that	-0.034848318
-1.8269761	you that	-0.034848318
-0.6492613	hope that	-0.034848318
-1.1582948	disasters that	-0.034848318
-1.2584145	requested that	-0.034848318
-1.800976	all that	-0.034848318
-1.3887562	house that	-0.034848318
-1.0085273	television that	-0.034848318
-1.6880952	if that	-0.034848318
-1.1582948	something that	-0.034848318
-1.6307555	proposal that	-0.034848318
-0.7355201	6 that	-0.034848318
-0.7355201	says that	-0.034848318
-0.7691567	believe that	-0.13761188
-1.8077588	is that	-0.034848318
-1.5179716	whether that	-0.034848318
-1.2206725	time that	-0.034848318
-1.081337	request that	-0.19983378
-1.5179716	ask that	-0.034848318
-0.7355201	principles that	-0.034848318
-1.308487	so that	-0.1095531
-1.0085273	shown that	-0.034848318
-1.5742099	us that	-0.034848318
-0.6492613	pleased that	-0.034848318
-0.92718476	clear that	-0.034848318
-1.1582948	basis that	-0.034848318
-1.5041587	important that	-0.034848318
-1.0085273	fact that	-0.034848318
-1.0085273	ensure that	-0.034848318
-1.2584145	legislation that	-0.034848318
-1.5109853	since that	-0.034848318
-0.7355201	disgraceful that	-0.034848318
-1.1582948	certain that	-0.034848318
-0.7355201	grounds that	-0.034848318
-0.7355201	admit that	-0.034848318
-1.4742724	today that	-0.034848318
-0.6492613	considering that	-0.034848318
-1.0085273	requests that	-0.034848318
-1.3887562	socialists that	-0.034848318
-1.2584145	propose that	-0.034848318
-0.7355201	recommended that	-0.034848318
-1.8006693	- that	-0.034848318
-1.0085273	given that	-0.034848318
-1.2671561	let that	-0.034848318
-0.7355201	mind that	-0.034848318
-1.0085273	discussed that	-0.034848318
-0.7355201	believes that	-0.034848318
-1.2584145	mentioned that	-0.034848318
-0.7355201	pretext that	-0.034848318
-1.0085273	saying that	-0.034848318
-0.7355201	means that	-0.034848318
-1.0085273	thought that	-0.034848318
-0.7355201	impression that	-0.034848318
-0.7355201	suggests that	-0.034848318
-1.2671561	say that	-0.034848318
-1.1582948	repeat that	-0.034848318
-0.7355201	requesting that	-0.034848318
-0.7355201	told that	-0.034848318
-0.7355201	moves that	-0.034848318
-1.0085273	consider that	-0.034848318
-0.7355201	indicated that	-0.034848318
-1.2671561	accept that	-0.034848318
-0.7355201	ensures that	-0.034848318
-0.7355201	sure that	-0.034848318
-1.2671561	risks that	-0.034848318
-0.7355201	transpired that	-0.034848318
-0.7355201	convinced that	-0.034848318
-0.7355201	understand that	-0.034848318
-2.25602	you enjoyed	-0.034848318
-2.8023567	a pleasant	-0.034848318
-0.7648802	pleasant festive	-0.034848318
-2.6727352	a period	-0.034848318
-1.8204702	year period	-0.034848318
-0.76327753	festive period	-0.034848318
-0.76327753	interim period	-0.034848318
-0.76327753	limited period	-0.034848318
-0.76327753	brief period	-0.034848318
-1.1326399	session .	-0.034848318
-1.7951443	on .	-0.034848318
-1.1151228	again .	-0.034848318
-1.336372	year .	-0.034848318
-1.7877519	that .	-0.034848318
-0.4426089	period .	-0.22927679
-1.3177282	countries .	-0.034848318
-0.92221415	dreadful .	-0.034848318
-1.4077317	debate .	-0.034848318
-1.3603146	this .	-0.22927679
-1.0408887	course .	-0.034848318
-1.0408887	silence .	-0.034848318
-1.3374499	members .	-0.034848318
-1.2834952	concerned .	-0.034848318
-1.1151228	union .	-0.034848318
-1.4140565	) .	-0.034848318
-1.4577315	president .	-0.034848318
-1.1823804	point .	-0.034848318
-1.1151228	order .	-0.034848318
-1.4552801	be .	-0.034848318
-1.306983	there .	-0.19983378
-1.0408887	lanka .	-0.034848318
-1.402962	one .	-0.034848318
-0.6873652	ago .	-0.034848318
-1.1051916	it .	-0.35421553
-1.0408887	appropriate .	-0.034848318
-1.0408887	letter .	-0.034848318
-1.0408887	suggested .	-0.034848318
-0.6873652	inadmissibility .	-0.034848318
-1.2926506	question .	-0.034848318
-0.79733133	thursday .	-0.19983378
-0.9902396	report .	-0.19983378
-0.6873652	annually .	-0.034848318
-0.50043744	done .	-0.22927679
-0.92221415	stability .	-0.034848318
-0.6873652	inadmissible .	-0.034848318
-1.1151228	kind .	-0.034848318
-1.4986706	not .	-0.034848318
-1.1004953	time .	-0.19983378
-0.6873652	death .	-0.034848318
-0.6873652	hicks .	-0.034848318
-1.2879152	request .	-0.034848318
-0.71924114	already .	-0.19983378
-0.6873652	myself .	-0.034848318
-1.3374104	ask .	-0.034848318
-1.3061495	now .	-0.034848318
-0.92221415	community .	-0.034848318
-0.6873652	person .	-0.034848318
-0.6873652	upheld .	-0.034848318
-1.1589956	so .	-0.19983378
-0.6873652	gladly .	-0.034848318
-1.2696393	adopted .	-0.034848318
-1.2696393	case .	-0.034848318
-0.6873652	interest .	-0.034848318
-0.92221415	nikitin .	-0.034848318
-0.9845534	here .	-0.19983378
-1.1151228	right .	-0.034848318
-0.6873652	appealing .	-0.034848318
-1.1326399	much .	-0.034848318
-0.92221415	findings .	-0.034848318
-1.0408887	sea .	-0.034848318
-0.6873652	considerably .	-0.034848318
-0.6873652	met .	-0.034848318
-0.92221415	month .	-0.034848318
-1.1151228	well .	-0.034848318
-1.014843	matter .	-0.19983378
-0.6381444	agenda .	-0.22927679
-1.1666341	wednesday .	-0.034848318
-1.0606251	light .	-0.034848318
-0.9576001	safety .	-0.35421553
-1.1666341	either .	-0.034848318
-1.0408887	improved .	-0.034848318
-1.1326399	areas .	-0.034848318
-1.1151228	ourselves .	-0.034848318
-1.2830582	vote .	-0.19983378
-1.0408887	questions .	-0.034848318
-0.92221415	newspaper .	-0.034848318
-1.2472179	them .	-0.034848318
-0.92221415	occasion .	-0.034848318
-0.92221415	comments .	-0.034848318
-0.6873652	november .	-0.034848318
-0.6873652	confused .	-0.034848318
-1.3058032	today .	-0.034848318
-0.9494402	decision .	-0.19983378
-1.1151228	embargo .	-0.034848318
-1.0408887	majority .	-0.034848318
-1.2575566	states .	-0.034848318
-0.6873652	volatile .	-0.034848318
-0.92221415	future .	-0.034848318
-0.6873652	happening .	-0.034848318
-0.92221415	expense .	-0.034848318
-1.0408887	conference .	-0.034848318
-1.2472179	rules .	-0.034848318
-1.0606251	procedure .	-0.034848318
-1.2341193	amendments .	-0.034848318
-0.92221415	monday .	-0.034848318
-0.6873652	tuesday .	-0.034848318
-1.2213081	group .	-0.19983378
-1.2047162	socialists .	-0.034848318
-1.2367678	commission .	-0.19983378
-1.1823804	years .	-0.034848318
-1.1151228	speak .	-0.034848318
-0.8584745	against .	-0.19983378
-1.4226846	programme .	-0.034848318
-0.71924114	legislature .	-0.19983378
-0.92221415	explicitly .	-0.034848318
-1.0408887	speech .	-0.034848318
-0.71924114	citizens .	-0.19983378
-1.0408887	end .	-0.034848318
-1.1151228	possible .	-0.034848318
-0.6873652	dilemma .	-0.034848318
-1.1666341	agreed .	-0.034848318
-0.6873652	suggesting .	-0.034848318
-1.1326399	opinion .	-0.034848318
-0.44018275	groups .	-0.22927679
-1.1666341	day .	-0.034848318
-1.1151228	february .	-0.034848318
-0.92221415	delay .	-0.034848318
-0.6873652	based .	-0.034848318
-0.92221415	discussion .	-0.034848318
-1.1666341	same .	-0.034848318
-1.1666341	votes .	-0.034848318
-0.92221415	abstentions .	-0.034848318
-1.0408887	itself .	-0.034848318
-1.1151228	2000 .	-0.034848318
-0.6873652	path .	-0.034848318
-0.92221415	role .	-0.034848318
-0.92221415	content .	-0.034848318
-0.92221415	long .	-0.034848318
-0.92221415	together .	-0.034848318
-0.6873652	decide .	-0.034848318
-0.6873652	upon .	-0.034848318
-0.6873652	reinstated .	-0.034848318
-1.1151228	tax .	-0.034848318
-1.0408887	poettering .	-0.034848318
-0.6873652	logic .	-0.034848318
-0.92221415	retained .	-0.034848318
-0.6139749	card .	-0.19983378
-0.92221415	&quot; .	-0.034848318
-0.92221415	themselves .	-0.034848318
-0.92221415	cards .	-0.034848318
-0.92221415	problem .	-0.034848318
-0.6873652	understood .	-0.034848318
-0.6873652	happen .	-0.034848318
-0.92221415	own .	-0.034848318
-0.6873652	analysis .	-0.034848318
-0.6873652	motion .	-0.034848318
-0.92221415	cox .	-0.034848318
-1.0408887	minutes .	-0.034848318
-0.92221415	solution .	-0.034848318
-0.92221415	explanations .	-0.034848318
-0.6873652	reservations .	-0.034848318
-0.6873652	necessary .	-0.034848318
-1.2361503	transport .	-0.19983378
-1.3277725	goods .	-0.034848318
-1.1151228	koch .	-0.034848318
-1.412444	directive .	-0.034848318
-1.1326399	harmonisation .	-0.034848318
-0.91423655	requirements .	-0.19983378
-0.6873652	waterway .	-0.034848318
-0.6873652	market .	-0.034848318
-1.2047162	standards .	-0.034848318
-0.6873652	responsibility .	-0.034848318
-0.6873652	welcomed .	-0.034848318
-0.6873652	satisfactorily .	-0.034848318
-0.71924114	support .	-0.19983378
-0.92221415	instead .	-0.034848318
-0.79733133	disaster .	-0.19983378
-1.1666341	europe .	-0.034848318
-0.6873652	limit .	-0.034848318
-0.6873652	province .	-0.034848318
-0.6873652	afterwards .	-0.034848318
-1.0408887	enforcement .	-0.034848318
-0.6873652	scale .	-0.034848318
-1.0408887	advisors .	-0.034848318
-0.6873652	qualified .	-0.034848318
-0.6873652	proved .	-0.034848318
-0.6873652	submitted .	-0.034848318
-0.6873652	sense .	-0.034848318
-0.6873652	way .	-0.034848318
-0.92221415	entails .	-0.034848318
-0.6873652	shipment .	-0.034848318
-1.0408887	problems .	-0.034848318
-0.6873652	analyses .	-0.034848318
-0.6873652	environment .	-0.034848318
-0.6873652	internationally .	-0.034848318
-0.6873652	feasible .	-0.034848318
-1.0408887	austria .	-0.034848318
-0.6873652	carefully .	-0.034848318
-0.92221415	magnificent .	-0.034848318
-0.6873652	closed .	-0.034848318
-0.6873652	&#93; .	-0.034848318
-0.92221415	standardisation .	-0.034848318
-0.6873652	developments .	-0.034848318
-0.6873652	job .	-0.034848318
-0.6873652	uncertainty .	-0.034848318
-0.6873652	powers .	-0.034848318
-2.6289053	<s> although	-0.034848318
-3.2284017	, although	-0.034848318
-1.5819265	<s> as	-0.1095531
-1.3918998	, as	-0.052354638
-1.3211299	union as	-0.034848318
-1.628576	just as	-0.034848318
-1.8992946	do as	-0.034848318
-2.2764332	is as	-0.034848318
-1.2073363	presented as	-0.034848318
-1.8348742	so as	-0.034848318
-1.4795274	clear as	-0.034848318
-0.7534018	stated as	-0.034848318
-0.7534018	involvement as	-0.034848318
-0.7534018	far as	-0.034848318
-1.0426837	channel as	-0.034848318
-1.3211299	well as	-0.034848318
-1.1686752	agenda as	-0.034848318
-1.4757539	week as	-0.034848318
-1.8357427	programme as	-0.034848318
-0.7534018	soon as	-0.034848318
-2.0075052	- as	-0.034848318
-1.0426837	duty as	-0.034848318
-1.3250954	proceed as	-0.034848318
-1.0426837	text as	-0.034848318
-1.4071736	votes as	-0.034848318
-1.4071736	such as	-0.034848318
-0.7534018	early as	-0.034848318
-1.2073363	regard as	-0.034848318
-0.7534018	safe as	-0.034848318
-0.7534018	area as	-0.034848318
-1.2073363	companies as	-0.034848318
-1.4528749	i will	-0.034848318
-2.11913	parliament will	-0.034848318
-1.6490958	you will	-0.034848318
-2.527125	that will	-0.034848318
-1.5254852	there will	-0.19983378
-1.8605486	it will	-0.034848318
-1.6930705	question will	-0.034848318
-2.223044	which will	-0.034848318
-1.3883438	we will	-0.1095531
-1.6564707	request will	-0.034848318
-1.2859854	they will	-0.034848318
-2.0035715	vote will	-0.034848318
-1.9817747	group will	-0.034848318
-2.0068567	commission will	-0.034848318
-1.8788816	programme will	-0.034848318
-1.3397545	citizens will	-0.034848318
-1.2195811	sitting will	-0.034848318
-0.757668	chairmen will	-0.034848318
-1.8554649	directive will	-0.034848318
-1.8635035	i have	-0.034848318
-2.025016	parliament have	-0.034848318
-2.2983575	and have	-0.034848318
-1.9594028	would have	-0.034848318
-2.1927886	to have	-0.034848318
-0.88500416	you have	-0.034848318
-1.5671017	will have	-0.034848318
-0.9516851	still have	-0.13761188
-1.6976433	people have	-0.034848318
-1.9409194	should have	-0.034848318
-1.6321014	members have	-0.034848318
-1.9640747	there have	-0.034848318
-1.6160245	who have	-0.034848318
-1.8002323	shall have	-0.034848318
-1.7645508	which have	-0.034848318
-2.098475	not have	-0.034848318
-1.3736026	we have	-0.034848318
-1.4014727	positions have	-0.034848318
-1.0402116	courts have	-0.034848318
-1.6160245	why have	-0.034848318
-1.8481727	also have	-0.034848318
-1.2711272	they have	-0.034848318
-0.75213003	services have	-0.034848318
-1.5247633	amendments have	-0.034848318
-1.0402116	events have	-0.034848318
-1.2037292	decisions have	-0.034848318
-1.0402116	longer have	-0.034848318
-1.2037292	others have	-0.034848318
-1.2037292	reading have	-0.034848318
-0.75213003	arrangements have	-0.034848318
-0.75213003	subsequently have	-0.034848318
-0.75213003	swoboda have	-0.034848318
-2.459251	have seen	-0.034848318
-3.2437956	the dreaded	-0.034848318
-2.1356063	parliament &apos;	-0.034848318
-1.7720357	year &apos;	-0.034848318
-0.7585263	dreaded &apos;	-0.034848318
-0.7585263	bug &apos;	-0.034848318
-0.4915133	minute &apos;	-0.19983378
-1.5035028	months &apos;	-0.034848318
-1.0527155	quaestors &apos;	-0.034848318
-1.4307569	wednesday &apos;	-0.034848318
-1.0527155	palacio &apos;	-0.034848318
-1.5758312	today &apos;	-0.034848318
-1.6158502	states &apos;	-0.034848318
-1.9956883	group &apos;	-0.034848318
-1.548753	commission &apos;	-0.19983378
-1.340379	crespo &apos;	-0.034848318
-1.2220721	poettering &apos;	-0.034848318
-1.2220721	tomorrow &apos;	-0.034848318
-1.2220721	cen &apos;	-0.034848318
-1.992263	&apos; millennium	-0.034848318
-0.7648802	millennium bug	-0.034848318
-1.992263	&apos; failed	-0.034848318
-3.0196602	to materialise	-0.034848318
-3.0871885	<s> still	-0.034848318
-2.490809	i still	-0.034848318
-3.144155	, still	-0.034848318
-2.6364639	is still	-0.034848318
-2.0629795	we still	-0.19983378
-2.7527645	of people	-0.034848318
-2.594075	the people	-0.034848318
-2.6388865	that people	-0.034848318
-2.337179	as people	-0.034848318
-1.5205482	many people	-0.034848318
-1.7654514	these people	-0.034848318
-1.2322866	dutch people	-0.034848318
-0.76154375	innocent people	-0.034848318
-1.3520147	how people	-0.034848318
-0.76154375	advise people	-0.034848318
-3.1919777	the number	-0.034848318
-1.3914787	a number	-0.5303068
-1.4599938	same number	-0.034848318
-2.801829	of countries	-0.034848318
-1.7752954	european countries	-0.034848318
-2.0963786	all countries	-0.034848318
-1.2334617	various countries	-0.034848318
-2.006966	for countries	-0.034848318
-1.5906017	other countries	-0.034848318
-0.79262114	some countries	-0.034848318
-0.79262114	transit countries	-0.034848318
-1.8375545	countries suffered	-0.034848318
-2.8023567	a series	-0.034848318
-2.960443	of natural	-0.034848318
-3.200361	the natural	-0.034848318
-2.9868407	to disasters	-0.034848318
-1.06472	natural disasters	-0.034848318
-1.4599938	such disasters	-0.034848318
-2.7641454	that truly	-0.034848318
-2.2000763	you were	-0.034848318
-0.7624098	truly were	-0.034848318
-1.5705951	we were	-0.034848318
-1.5255438	item were	-0.034848318
-2.0644858	group were	-0.034848318
-2.1611218	- were	-0.034848318
-1.2334617	others were	-0.034848318
-1.2334617	transported were	-0.034848318
-1.7571135	were dreadful	-0.034848318
-0.764633	anything dreadful	-0.034848318
-1.9004859	have requested	-0.034848318
-1.8365325	had requested	-0.034848318
-1.6043535	being requested	-0.034848318
-1.8814625	the debate	-0.1810304
-3.0772145	, debate	-0.034848318
-1.7646003	a debate	-0.13761188
-1.3580245	new debate	-0.034848318
-1.6719273	this debate	-0.034848318
-0.76284343	urgent debate	-0.034848318
-1.2347459	annual debate	-0.034848318
-1.348755	<s> this	-0.25021392
-1.1989982	of this	-0.10181759
-1.9264479	parliament this	-0.034848318
-1.0873431	on this	-0.075952224
-1.8521645	, this	-0.034848318
-1.977102	and this	-0.034848318
-1.8835039	would this	-0.034848318
-1.4734454	to this	-0.075952224
-1.2719895	in this	-0.11654632
-1.2178881	that this	-0.07059641
-2.0273001	have this	-0.034848318
-0.777546	during this	-0.034848318
-1.8857577	all this	-0.034848318
-1.3178405	for this	-0.034848318
-1.0264623	regret this	-0.034848318
-1.7660818	if this	-0.034848318
-1.9903786	which this	-0.034848318
-1.183836	raise this	-0.034848318
-1.0651903	whether this	-0.034848318
-1.7046394	with this	-0.034848318
-1.7481884	so this	-0.034848318
-1.3705086	positions this	-0.034848318
-1.5682483	why this	-0.034848318
-1.0264623	examine this	-0.034848318
-1.1904585	follow this	-0.034848318
-1.5682483	since this	-0.034848318
-1.4897575	present this	-0.034848318
-1.2908306	propose this	-0.034848318
-1.438989	against this	-0.034848318
-0.74499303	dictates this	-0.034848318
-1.183836	explain this	-0.034848318
-1.8990288	- this	-0.034848318
-1.297183	let this	-0.034848318
-0.74499303	criticising this	-0.034848318
-0.74499303	describes this	-0.034848318
-1.3243908	hold this	-0.034848318
-0.74499303	distinguished this	-0.034848318
-1.297183	off this	-0.034848318
-0.74499303	addressed this	-0.034848318
-0.74499303	advertising this	-0.034848318
-1.297183	think this	-0.034848318
-1.297183	accept this	-0.034848318
-1.183836	adopting this	-0.034848318
-0.74499303	endorse this	-0.034848318
-1.4897575	where this	-0.034848318
-0.74499303	enforcing this	-0.034848318
-0.74499303	presenting this	-0.034848318
-0.74499303	debating this	-0.034848318
-0.74499303	apply this	-0.034848318
-3.200361	the subject	-0.034848318
-2.7075746	this subject	-0.034848318
-2.4450357	of course	-0.13761188
-3.200361	the course	-0.034848318
-2.1105652	the next	-0.034848318
-3.2233276	, next	-0.034848318
-2.5762873	for next	-0.034848318
-1.609378	a few	-0.093548715
-1.5385907	next few	-0.034848318
-1.4614727	few days	-0.034848318
-2.7085564	, during	-0.19983378
-1.3622425	again during	-0.034848318
-0.764147	specifically during	-0.034848318
-1.457839	prodi during	-0.034848318
-3.0177093	the part	-0.034848318
